conv1_weight 150
-0.27720651030540466 -0.05406069755554199 -0.10942471772432327 0.1305367350578308 0.01636062189936638 -0.22571824491024017 0.18962155282497406 0.2077050805091858 0.19517476856708527 0.2412434220314026 -0.06112990528345108 0.1419016271829605 0.2391493320465088 0.28483375906944275 0.3525368571281433 -0.07984117418527603 0.133602112531662 0.3290262222290039 0.2726207971572876 -0.0020589439664036036 -0.08676811307668686 -0.010030243545770645 0.2953203618526459 0.20970305800437927 -0.10686193406581879 0.12443208694458008 0.12255404144525528 -0.07080741226673126 0.3039304316043854 -0.0017885130364447832 -0.04469015449285507 0.10709346830844879 0.278611421585083 0.31995314359664917 0.2900499403476715 0.2824676036834717 0.04344507306814194 0.2991255819797516 0.18056024610996246 0.09796473383903503 0.2107105553150177 -0.06956212222576141 -0.24455946683883667 -0.22926431894302368 -0.07699809223413467 -0.05555348098278046 0.032987724989652634 -0.18802207708358765 -0.11087608337402344 -0.1674627661705017 -0.12953586876392365 0.0884324237704277 0.15176525712013245 -0.052875567227602005 -0.2828676402568817 0.13682451844215393 0.10391589999198914 0.0018720655934885144 0.10883351415395737 -0.2677239179611206 0.0725242868065834 0.2690906524658203 0.2327147275209427 -0.19821467995643616 -0.06901245564222336 0.2471184879541397 0.1540665477514267 0.31998732686042786 0.03435586765408516 0.16036419570446014 -0.11653123050928116 0.3306586444377899 0.24877341091632843 0.09139242768287659 0.06431574374437332 0.14268845319747925 -0.08891422301530838 0.02769884653389454 -0.015572963282465935 0.07286395132541656 0.24652552604675293 -0.025618696585297585 0.018204454332590103 0.08934628218412399 -0.10238389670848846 -0.002705557271838188 0.05473397299647331 0.05714840069413185 0.1472884863615036 -0.1907540261745453 0.27421247959136963 0.0866740271449089 -0.05791645124554634 0.050746724009513855 0.2583870589733124 0.1946038156747818 0.21136519312858582 -0.04317237064242363 0.12410901486873627 0.23449361324310303 -0.1365436464548111 -0.08031447231769562 -0.19834445416927338 -0.19624869525432587 -0.035077471286058426 -0.1330515295267105 -0.03248496353626251 -0.4024168848991394 -0.27949559688568115 -0.14520971477031708 -0.011203081347048283 -0.18051433563232422 -0.11953223496675491 -0.1635899841785431 -0.03181171044707298 0.30890318751335144 0.1799899786710739 0.3527953326702118 0.17884722352027893 -0.026201041415333748 0.338207483291626 0.23904076218605042 0.3161243200302124 0.2739611268043518 0.39098143577575684 -0.1388501226902008 0.23762147128582 0.22650429606437683 0.23229916393756866 -0.03324476629495621 -0.11365719139575958 0.3545874357223511 0.31144747138023376 0.05969170108437538 0.14041557908058167 0.1514795869588852 0.15558463335037231 0.03639533743262291 -0.07192327827215195 0.23451250791549683 -0.014889022335410118 -0.034597817808389664 0.1054583266377449 0.06610547751188278 0.10661036521196365 -0.13544540107250214 -0.20250001549720764 -0.15513992309570312 0.1873662918806076 0.07301188260316849 
conv1_bias 6
0.15916331112384796 -0.00046233038301579654 0.0013623882550746202 -0.0982397049665451 0.05955934152007103 0.0021260464563965797 
conv2_weight 2400
-0.05213244631886482 -0.23983970284461975 0.12195879966020584 0.1361636519432068 -0.0787612572312355 -0.15713271498680115 -0.12855564057826996 0.11165166646242142 0.11962535232305527 -0.10335762053728104 -0.09300784021615982 -0.07162092626094818 0.07988618314266205 0.08143627643585205 -0.04548284038901329 0.034112349152565 0.10736730694770813 0.049537498503923416 0.08851642161607742 0.01750795915722847 0.033553920686244965 -0.008929742500185966 -0.01627359911799431 0.051946282386779785 -0.0027525692712515593 -0.06483986228704453 -0.16593122482299805 -0.03322034701704979 0.07512658089399338 0.015541761182248592 -0.04503848776221275 -0.16041299700737 -0.11162152141332626 0.050565656274557114 0.06714105606079102 -0.10340948402881622 -0.09808047115802765 0.07130973041057587 0.06970429420471191 0.008925559930503368 0.02363681234419346 0.007287371437996626 0.0855606272816658 -0.005195546429604292 0.024979161098599434 0.06330163031816483 -0.02240161783993244 -0.02799457684159279 0.05264272913336754 -0.002774696098640561 -0.03599690645933151 -0.11586698144674301 -0.24725450575351715 0.18162712454795837 0.1261092573404312 0.03129719942808151 -0.06742497533559799 -0.03062381036579609 0.22384415566921234 0.020401563495397568 -0.07064661383628845 -0.10441120713949203 -0.017729556187987328 0.14152829349040985 0.027409624308347702 -0.010899149812757969 -0.011233882047235966 0.13786914944648743 0.06236523017287254 0.002865915186703205 -0.05445917323231697 0.07228553295135498 0.045668963342905045 0.03987604379653931 -0.014657659456133842 -0.0731724351644516 -0.16613875329494476 0.015820516273379326 0.046020153909921646 0.026297762989997864 -0.15393184125423431 -0.16619467735290527 -0.07132067531347275 -0.04446132853627205 -0.02475454844534397 0.009163942188024521 0.056832171976566315 -0.01211183238774538 0.11281733214855194 -0.017007142305374146 0.09771063923835754 -0.028974393382668495 0.054394010454416275 0.06507718563079834 0.045869313180446625 0.07717636227607727 -0.00020164056331850588 -0.020044784992933273 0.051789119839668274 0.06129031628370285 -0.0860116258263588 -0.12817853689193726 -0.1488466113805771 -0.1908932775259018 -0.0894135981798172 -0.09833735227584839 -0.04538263380527496 -0.030642617493867874 -0.09370212256908417 -0.0622376948595047 0.12411653995513916 0.044235970824956894 -0.05977628007531166 -0.09175094962120056 -0.03675923869013786 0.1102035716176033 0.09929516166448593 -0.09027872234582901 0.08123547583818436 0.11808732897043228 0.05755317211151123 -0.12776175141334534 -0.12988629937171936 -0.04624517634510994 0.09624388813972473 -0.050682537257671356 -0.012554941698908806 0.056013382971286774 0.11111287772655487 -0.08286595344543457 -0.1375257670879364 -0.16482719779014587 0.0018732669996097684 0.05851929634809494 -0.027780963107943535 -0.03566223755478859 -0.04798359423875809 -0.0517747737467289 0.02126690000295639 -0.0404943972826004 0.029560694471001625 -0.07240436226129532 0.006312579847872257 0.14794757962226868 -0.06294585764408112 -0.022791700437664986 0.07106249779462814 0.09400414675474167 0.05830730125308037 -0.005331327673047781 0.05087534338235855 0.043848417699337006 0.0581197552382946 0.037915509194135666 -0.08257564902305603 -0.10713719576597214 -0.06897743046283722 0.08150671422481537 0.0936167985200882 -0.09815936535596848 -0.24810050427913666 -0.021463528275489807 0.22069665789604187 0.04636462777853012 -0.10552749037742615 -0.19939939677715302 0.14778681099414825 0.21782709658145905 0.05737610161304474 -0.2181243598461151 0.022150423377752304 0.1873483806848526 0.1386336237192154 -0.029512697830796242 -0.2191070020198822 0.07125376164913177 0.05376269668340683 -0.04870516061782837 0.019368408247828484 0.05283253267407417 -0.007111947517842054 -0.06303251534700394 -0.06326821446418762 -0.0026070510502904654 0.05654923990368843 -0.08069471269845963 -0.22929714620113373 0.05445897951722145 0.017119063064455986 0.08776802569627762 -0.22909218072891235 -0.18902142345905304 0.06357281655073166 0.10420133918523788 0.07483028620481491 -0.13501550257205963 0.06901770830154419 0.18681477010250092 0.12166189402341843 -0.1323048621416092 0.031153075397014618 0.05853164941072464 0.029500091448426247 0.07761015743017197 -0.003587535349652171 -0.19712695479393005 -0.13868790864944458 0.09311874955892563 0.10168242454528809 0.08255422860383987 -0.13985256850719452 -0.2563583552837372 0.0869435966014862 0.0741923451423645 -0.013581722043454647 -0.13690491020679474 -0.15159852802753448 0.12686607241630554 0.07589982450008392 -0.13084617257118225 -0.060098521411418915 -0.08348096907138824 0.14762112498283386 0.1261010766029358 -0.17969471216201782 0.035820312798023224 -0.032989501953125 -0.0392051562666893 0.020690152421593666 -0.010036732070147991 -0.05800378695130348 -0.13887186348438263 -0.008672229945659637 0.06538107991218567 0.12682592868804932 -0.14322122931480408 -0.15434367954730988 0.018765421584248543 0.03416597470641136 -0.04432675242424011 -0.020833168178796768 -0.034504201263189316 0.020837299525737762 0.052235670387744904 0.03950336202979088 -0.020107921212911606 0.05103600397706032 0.07791084051132202 0.12392062693834305 0.03738612309098244 -0.0649293065071106 0.026250183582305908 0.041520316153764725 0.07824402302503586 0.0654488056898117 -0.1235164999961853 -0.19154329597949982 -0.06644390523433685 0.025962218642234802 -0.06309205293655396 -0.10330460220575333 0.018205905333161354 -0.051235903054475784 -0.11334600299596786 -0.15163512527942657 0.060900136828422546 -0.05429338663816452 -0.07305312156677246 -0.0964900404214859 -0.24048417806625366 0.08462397009134293 0.05396305397152901 -0.2435457557439804 -0.08754739910364151 -0.13979874551296234 -0.05911608785390854 -0.003885315963998437 0.04208846017718315 -0.05853201821446419 -0.05731219798326492 0.026324423030018806 0.12505033612251282 0.0981900617480278 0.1021178737282753 -0.07831777632236481 -0.06712620705366135 0.10007364302873611 -0.027006972581148148 0.07997618615627289 0.03999648615717888 -0.11086548119783401 0.043168798089027405 0.08749192953109741 0.053217001259326935 -0.0020621635485440493 -0.024022895842790604 0.023043103516101837 0.17970231175422668 0.12739256024360657 -0.1639392226934433 -0.13110096752643585 -0.10765008628368378 -0.15196487307548523 -0.05180566757917404 0.1252407729625702 -0.06512320041656494 -0.10984765738248825 0.04063459858298302 0.02246909774839878 0.02671961858868599 -0.06028452515602112 0.04905402287840843 0.04113113135099411 0.04060530662536621 -0.024464815855026245 0.008943920023739338 -0.043330028653144836 0.09043829888105392 -0.14785771071910858 -0.11315569281578064 -0.11367744952440262 -0.10305266827344894 -0.008954049088060856 -0.08780200779438019 0.02182132750749588 -0.10228866338729858 -0.11276263743638992 -0.09098583459854126 -0.10886059701442719 0.02621934935450554 0.008677467703819275 -0.02587854489684105 -0.14763899147510529 -0.07811344414949417 0.1374167799949646 0.04168851673603058 0.09429499506950378 0.09327862411737442 0.01956544630229473 0.009618164040148258 0.09045931696891785 0.114862821996212 0.05287051200866699 0.09162697196006775 -0.09095389395952225 0.0029662984889000654 0.08397248387336731 -0.04332200065255165 0.08104537427425385 -0.025175223127007484 0.04124198108911514 -0.06942863017320633 -0.18079876899719238 -0.007885291241109371 0.06474579870700836 -0.03635631129145622 0.028150929138064384 0.029797563329339027 0.030366018414497375 0.057844892144203186 0.09485621005296707 0.09855581820011139 -0.03695864975452423 0.03286180645227432 -0.07631563395261765 0.04109300300478935 0.03035842254757881 0.16595689952373505 0.058514684438705444 -0.002359564881771803 0.03244975954294205 0.057793255895376205 0.13889864087104797 0.20115211606025696 0.003450924064964056 -0.029515022411942482 -0.1510389745235443 -0.11193184554576874 -0.07571113109588623 -0.08388333767652512 0.06377896666526794 -0.021417493000626564 0.0014548853505402803 0.03238646686077118 -0.05572423338890076 0.09254301339387894 0.014285857789218426 -0.04796904698014259 0.09255935996770859 -0.014875970780849457 0.0028134649619460106 0.11220680177211761 -0.005855542607605457 0.12402024120092392 -0.03914469853043556 -0.03908224403858185 0.012855244800448418 0.08985606580972672 0.0882565826177597 0.05376208573579788 0.1748695820569992 0.01999056152999401 0.07683327049016953 0.16286452114582062 0.1590452492237091 0.01060572825372219 0.154569610953331 0.12968267500400543 0.0427946113049984 0.061715267598629 -0.060971882194280624 0.07070920616388321 0.06642104685306549 0.04349323734641075 -0.019509417936205864 -0.06286632269620895 -0.1444556713104248 -1.4751753042219207e-05 0.20037423074245453 0.07735808193683624 -0.16538573801517487 -0.09679657220840454 0.0343572199344635 0.2200947403907776 0.2276875525712967 -0.05302581936120987 -0.15327855944633484 -0.022569535300135612 -0.008466566912829876 0.0269517470151186 -0.08324318379163742 -0.11622089892625809 -0.1251649707555771 -0.1051284447312355 -0.038416288793087006 -0.051866620779037476 0.024195458739995956 -0.017922913655638695 -0.04924309253692627 -0.011329220607876778 0.05410264432430267 0.006247776560485363 0.05466705933213234 -0.010141942650079727 -0.07515554875135422 0.004946807399392128 0.16309398412704468 0.048161689192056656 0.04408656433224678 -0.08789655566215515 -0.09904248267412186 -0.052294954657554626 0.03006485477089882 0.13531456887722015 -0.1263205111026764 -0.07934989035129547 0.012514927424490452 0.11644615978002548 -0.0017642801394686103 -0.13881541788578033 0.004412213806062937 0.01778065413236618 0.04615982994437218 -0.0800950676202774 -0.06690899282693863 0.006747162435203791 0.07681723684072495 -0.056949302554130554 -0.111769899725914 -0.014047631993889809 0.036574237048625946 0.0369131937623024 -0.05375191196799278 -0.021960215643048286 -0.02894768863916397 0.05148470029234886 -0.12576325237751007 -0.11155673116445541 0.042380064725875854 0.08575057983398438 -0.05482807755470276 -0.01736275851726532 0.038245607167482376 -0.020694920793175697 0.09153308719396591 0.03315528854727745 -0.011478728614747524 0.10994981229305267 -0.03619837015867233 -0.04181039705872536 -0.0631575956940651 0.07050459831953049 0.06315886974334717 0.059465017169713974 -0.0511840358376503 -0.06037745997309685 -0.01435177307575941 -0.07989310473203659 0.03755636140704155 0.02523081935942173 0.09949351102113724 -0.07373698055744171 0.012381143867969513 0.08162233233451843 0.11606179177761078 0.09642396122217178 0.009200355969369411 -0.06028711050748825 0.03921417146921158 0.08786024898290634 0.05404733121395111 -0.03992938622832298 -0.026424016803503036 0.10880676656961441 0.015171769075095654 -0.09520232677459717 -0.07303441315889359 0.1041833832859993 -0.07812538743019104 -0.11478013545274734 0.0017736480804160237 0.035606928169727325 0.00061576790176332 0.053782105445861816 -0.03893232345581055 0.08958728611469269 0.08124635368585587 0.03910989314317703 -0.011074617505073547 0.06719421595335007 0.08696918189525604 -0.0008621561573818326 -0.019485054537653923 0.018029039725661278 0.10413534939289093 -0.05871441215276718 0.051808036863803864 0.0037577624898403883 0.008769378997385502 -0.020834961906075478 -0.04037918895483017 0.03372115269303322 0.03679048269987106 0.009839968755841255 -0.0009084288612939417 -0.06359601020812988 0.03371770679950714 -0.06988062709569931 0.014913256280124187 -0.06321398913860321 0.053865958005189896 0.057320255786180496 -0.04837331175804138 0.0027991035021841526 0.031182873994112015 0.10779493302106857 0.11544296890497208 -0.05519770085811615 -0.0433816984295845 0.03428058326244354 -0.06816000491380692 0.04192311316728592 -0.06292235851287842 -0.029902450740337372 0.10515722632408142 -0.1152224913239479 -0.13754820823669434 -0.13151925802230835 -0.06737157702445984 -0.08991523087024689 -0.1924651712179184 -0.2570347189903259 -0.16733236610889435 -0.02194821462035179 0.042791374027729034 -0.08275258541107178 -0.08088123798370361 -0.043511759489774704 0.06947917491197586 -0.05775632709264755 0.0504433810710907 -0.05989560857415199 0.047971662133932114 0.10641685873270035 -0.012539202347397804 0.08463110774755478 0.10328024625778198 0.036164261400699615 -0.02796310745179653 -0.04581838846206665 -0.04659762233495712 0.10342150181531906 0.04230295121669769 -0.003718986874446273 0.04401876777410507 -0.03807194530963898 0.048857297748327255 -0.08036681264638901 0.004889333620667458 0.04251021519303322 -0.0481950044631958 -0.09523031115531921 -0.14572995901107788 0.06010392680764198 0.24700959026813507 -0.03724946081638336 -0.10378634184598923 -0.2211524248123169 -0.05337377265095711 -0.03136076033115387 -0.0697232335805893 -0.15467298030853271 -0.20530761778354645 -0.17329025268554688 -0.18425334990024567 -0.0032633477821946144 -0.028765013441443443 5.764690286014229e-05 -0.04218490421772003 -0.03162519261240959 -0.005294063128530979 0.0554722435772419 0.04535485804080963 0.10510528087615967 0.11331477761268616 -0.031183402985334396 -0.07186160236597061 0.050510577857494354 -0.03531786799430847 0.04610039293766022 0.06666937470436096 0.007469980511814356 -0.04900810867547989 -0.035316310822963715 0.1807420253753662 0.038116663694381714 -0.03768562898039818 -0.14971978962421417 -0.06808729469776154 -0.1192931979894638 0.01765304058790207 -0.003245413303375244 0.001140534644946456 -0.05610095337033272 0.02968585677444935 0.08898807317018509 0.0392809733748436 0.13897913694381714 0.15852347016334534 0.1359863132238388 0.04342981055378914 0.00803408119827509 -0.04590480029582977 -0.05548897758126259 0.08471982926130295 0.04584264010190964 0.01778263971209526 -0.22048665583133698 -0.11991824954748154 -0.10625718533992767 0.058586202561855316 0.046109624207019806 -0.00550015177577734 -0.08720743656158447 -0.12178866565227509 0.13922354578971863 0.1513199359178543 0.09275808185338974 0.10047764331102371 0.09334554523229599 -0.07140383124351501 0.0012237937189638615 0.03066260553896427 -0.010033677332103252 -0.006162415724247694 0.06062215566635132 0.037984851747751236 -0.006563734728842974 0.027533436194062233 0.023730603978037834 0.09596861898899078 -0.049688372761011124 -0.07904396206140518 -0.14915379881858826 -0.16137278079986572 0.022639207541942596 0.04591014236211777 -0.013085300102829933 -0.010794340632855892 -0.10095179826021194 0.023860497400164604 0.050368618220090866 0.08860891312360764 0.09449252486228943 0.04268091171979904 -0.0044166757725179195 0.05920851603150368 0.06878672540187836 0.05974353477358818 0.034568291157484055 -0.11262071132659912 -0.21393506228923798 -0.22687773406505585 -0.04251907020807266 0.10533837974071503 0.05974482372403145 -0.11476841568946838 -0.051628004759550095 -0.1909990906715393 -0.23226550221443176 0.17092390358448029 0.24334537982940674 0.07589498907327652 0.09598111361265182 0.11778976768255234 0.14521460235118866 0.1453603208065033 0.13891476392745972 0.1108517050743103 0.17165198922157288 -0.04809502139687538 0.01842823065817356 -0.03244573250412941 -0.07984491437673569 -0.003994037862867117 0.02420205995440483 -0.017217177897691727 0.03451976180076599 0.02749996818602085 0.04681326448917389 -0.08576339483261108 -0.05990288034081459 -0.15517930686473846 0.05991821363568306 0.019919676706194878 0.039514124393463135 0.009410942904651165 -0.21676293015480042 -0.17515838146209717 -0.13497470319271088 0.05765253305435181 0.0556320883333683 -0.01798771694302559 0.03155342489480972 -0.06661240011453629 0.10824104398488998 0.11655312776565552 0.031843505799770355 0.03405226767063141 0.05551110580563545 0.02650625817477703 -0.03242107853293419 0.00047116680070757866 -0.021098900586366653 -0.09096553921699524 0.06774726510047913 -0.08185305446386337 -0.13856226205825806 -0.03858698904514313 -0.041285909712314606 0.0676690936088562 0.07935230433940887 -0.05932922288775444 0.10728132724761963 0.08983316272497177 0.02107520028948784 0.016896026208996773 0.02921457402408123 0.01855132356286049 -0.03462823107838631 -0.009431307204067707 -0.022580614313483238 -0.16959062218666077 -0.16902895271778107 -0.10233817249536514 -0.031791724264621735 0.07311695069074631 0.044825948774814606 -0.04607367143034935 -0.0968940407037735 -0.10065684467554092 -0.08709920942783356 -0.055638063699007034 -0.17812462151050568 -0.04974977299571037 0.034196313470602036 -0.0484575480222702 -0.01173366792500019 -0.004427345935255289 0.12452349066734314 -0.10581448674201965 0.014326663687825203 0.05823322385549545 0.2013406902551651 0.14812050759792328 0.06197027117013931 0.035445328801870346 0.03662053123116493 0.019025687128305435 -0.12414156645536423 0.022816559299826622 0.0141334543004632 -0.05669237673282623 -0.02437095157802105 -0.06446180492639542 -0.03670812025666237 0.13546276092529297 0.03701285645365715 0.019125279039144516 -0.030118748545646667 -0.00924233440309763 0.13308002054691315 0.15342886745929718 0.10768242180347443 0.09789944440126419 -0.03343904763460159 -0.009695375338196754 0.003940832335501909 -0.030470065772533417 -0.08157861977815628 -0.14086422324180603 -0.07812932133674622 -0.15445537865161896 -0.026223286986351013 -0.059243492782115936 -0.059164874255657196 -0.013522641733288765 0.009539661929011345 -0.09558205306529999 -0.05800763517618179 0.016603639349341393 0.10622649639844894 0.030333053320646286 0.010504059493541718 0.11925856024026871 0.041334640234708786 0.12465491145849228 0.1841534674167633 0.0957883894443512 0.058693837374448776 -0.09989787638187408 -0.013708421029150486 0.06174362450838089 0.10459493845701218 -0.02252388373017311 -0.03191697224974632 -0.08011671155691147 0.004893777891993523 -0.04612415283918381 -0.10360872000455856 0.047179076820611954 0.02594945952296257 0.07534349709749222 -0.11488230526447296 0.06951736658811569 0.042410705238580704 0.03651398420333862 0.1032600998878479 0.12582971155643463 0.05580246448516846 -0.20330652594566345 -0.06978148967027664 0.05523676052689552 0.2210187315940857 0.04865960776805878 0.005868080072104931 0.01708320342004299 0.04926179349422455 -0.10523693263530731 -0.1633698046207428 -0.1546451300382614 -0.17380161583423615 -0.12314068526029587 -0.1670050024986267 -0.05418116971850395 -0.03279262036085129 -0.14910632371902466 -0.14082974195480347 -0.047315169125795364 -0.050885241478681564 0.11531464010477066 -0.04791407287120819 -0.12283211201429367 0.027086611837148666 0.04414093494415283 0.014424139633774757 0.011337037198245525 -0.022547611966729164 0.048260387033224106 0.07119595259428024 0.07041933387517929 0.051260534673929214 0.13699229061603546 0.05340685695409775 0.06349246203899384 -0.10000059753656387 0.07930194586515427 -0.02063148282468319 -0.012409256771206856 -0.03556206822395325 0.08043622225522995 0.06379386782646179 0.13284094631671906 0.12083086371421814 0.07851283252239227 0.0765787661075592 0.15188205242156982 0.02208920754492283 0.07173120230436325 0.07799390703439713 -0.07925844192504883 -0.1542813926935196 -0.06414837390184402 -0.07944915443658829 -0.03898467868566513 -0.010113075375556946 -0.20155344903469086 -0.1763378381729126 0.01530840341001749 -0.008615226484835148 0.010448765009641647 0.01736961118876934 0.08679793775081635 0.15746256709098816 0.05228015407919884 0.010362299159169197 0.005749085918068886 -0.003500194987282157 0.015021415427327156 0.12160412967205048 0.010876212269067764 0.130503311753273 0.0669354721903801 0.1312587708234787 0.04671159014105797 0.10894845426082611 0.11637075990438461 0.08877899497747421 0.04593566060066223 -0.11930704116821289 -0.15376119315624237 -0.21688012778759003 -0.21950027346611023 -0.22175520658493042 -0.08964598923921585 -0.012401266023516655 -0.07957568019628525 -0.019019048660993576 -0.04869859665632248 0.0021805891301482916 0.0016773618990555406 0.1512996107339859 0.1418112814426422 0.1148802787065506 0.11656060069799423 -0.015471099875867367 -0.02028774470090866 -0.054499927908182144 -0.03658309206366539 -0.1018138900399208 -0.11321675032377243 -0.20612527430057526 -0.2833438813686371 -0.1962222158908844 -0.21674472093582153 -0.04365028068423271 -0.08109475672245026 -0.09600134938955307 -0.13529379665851593 -0.005909026600420475 0.014506102539598942 0.012560434639453888 0.04958021640777588 0.04105210676789284 0.07846389710903168 -0.011178207583725452 0.14037065207958221 0.141225203871727 0.1288919746875763 0.006875111721456051 0.08164122700691223 -0.055021535605192184 -0.08248277008533478 -0.09184007346630096 -0.06694711744785309 -0.12104815989732742 -0.162065327167511 -0.12486256659030914 -0.181417316198349 -0.16465069353580475 -0.04496295750141144 -0.009884927421808243 -0.13841961324214935 -0.09234441816806793 -0.05011795833706856 -0.04568727687001228 0.053950123488903046 -0.04662249609827995 0.02528311125934124 -0.051723212003707886 0.13388122618198395 0.24795816838741302 0.13529041409492493 0.17274980247020721 0.23205918073654175 -0.015204889699816704 -0.0748644769191742 0.0023632626980543137 -0.14173518121242523 -0.18366076052188873 -0.07275994122028351 -0.09361220896244049 -0.15690606832504272 -0.20672646164894104 -0.1348702758550644 0.11366326361894608 0.20644082129001617 0.14429114758968353 0.19641421735286713 0.16796690225601196 0.1482120007276535 0.1734214425086975 0.1531209498643875 0.09437904506921768 0.17225508391857147 -0.031032200902700424 -0.030792417004704475 0.00027717198827303946 0.04475696384906769 0.010606332682073116 0.05779862403869629 0.1521541327238083 0.0029729537200182676 0.09395080804824829 0.17095209658145905 0.009297146461904049 0.0415511429309845 -0.12674005329608917 -0.026046011596918106 0.0708187073469162 -0.16188035905361176 -0.16879908740520477 -0.2149805724620819 -0.2235088348388672 -0.08921172469854355 0.00023735260765533894 -0.14187419414520264 -0.097274549305439 0.03880899399518967 -0.018057776615023613 0.06197129562497139 0.09226085245609283 -0.07967609912157059 -0.10351461172103882 -0.13559913635253906 0.06306242942810059 0.034362323582172394 -0.07883047312498093 -0.018398987129330635 -0.09121280163526535 0.07780501246452332 0.006221042945981026 -0.08604308217763901 0.011261306703090668 -0.04644040763378143 0.03669705614447594 0.062331683933734894 0.07107537239789963 0.03111138381063938 -0.07684750109910965 -0.010713702067732811 -0.06023744121193886 -0.09473513066768646 -0.10916207730770111 -0.0651598647236824 -0.08381322771310806 0.10502111166715622 0.0656110942363739 -0.07019427418708801 -0.0042004892602562904 -0.06818819791078568 -0.001817250158637762 0.03319169208407402 0.011036677286028862 -0.10839623957872391 0.024719011038541794 0.02990337833762169 0.014658745378255844 -0.02938072197139263 0.032792117446660995 -0.03099871426820755 0.13595128059387207 0.09343858063220978 0.12429297715425491 0.08415762335062027 0.12107152491807938 0.15117520093917847 0.016536615788936615 0.004805874079465866 -0.11491356790065765 -0.08655818551778793 0.04700513556599617 0.06160217151045799 -0.08485511690378189 -0.12611159682273865 0.049352068454027176 0.04179203137755394 -0.002319928491488099 -6.067572030588053e-05 -0.13027046620845795 0.05220501124858856 0.0007265897584147751 0.10188546776771545 0.017561329528689384 -0.10740259289741516 0.01930457539856434 0.11043815314769745 0.001686449395492673 0.12156816571950912 0.01073119230568409 0.017014900222420692 -0.1520823985338211 -0.1380716860294342 0.016130546107888222 0.029091792181134224 0.03554416075348854 0.10725519806146622 0.006925438065081835 0.006254368927329779 -0.11793535947799683 0.0405459888279438 0.057410456240177155 0.03572317212820053 -0.04019933566451073 -0.007527184206992388 0.014344722963869572 0.15365779399871826 0.1353469341993332 0.11883951723575592 -0.027831651270389557 0.004059979226440191 0.06903240084648132 0.08135730773210526 0.013753858394920826 0.04213235527276993 -0.09188833087682724 -0.08525516837835312 -0.079573854804039 -0.03498160466551781 0.033137209713459015 -0.09527567774057388 -0.0021062828600406647 -0.12193042784929276 -0.022183112800121307 -0.02286664769053459 -0.17701472342014313 -0.156572625041008 -0.10275141149759293 -0.08514780551195145 -0.022540053352713585 -0.10859734565019608 0.16377918422222137 0.11793828010559082 0.059026435017585754 0.11256442964076996 -0.02095588855445385 0.15175625681877136 0.17091739177703857 0.09015402942895889 0.08039624243974686 -0.1632920652627945 -0.163227841258049 -0.17556437849998474 -0.2398797869682312 -0.08347827196121216 -0.018868204206228256 -0.0034407339990139008 -0.09584832191467285 -0.09937392920255661 -0.04553253948688507 0.043654199689626694 0.030195171013474464 0.0036026714369654655 -0.14672544598579407 -0.044844936579465866 0.08035946637392044 0.021052049472928047 -0.03641843423247337 -0.005896476563066244 -0.07065436989068985 0.056102629750967026 0.07528087496757507 0.1272660344839096 0.07498805224895477 0.0448889434337616 0.05971095710992813 0.009047807194292545 0.1301387995481491 0.08030913770198822 -0.1016392633318901 0.03123483620584011 0.03844555839896202 0.021704452112317085 0.0756361111998558 0.0034735877998173237 -0.07857044041156769 -0.1425108164548874 -0.20492084324359894 -0.17535994946956635 -0.08856481313705444 -0.07801821082830429 0.005166203249245882 -0.136159285902977 -0.0319385789334774 0.07102710753679276 -0.02278890274465084 -0.04765851050615311 0.08354762196540833 0.020006755366921425 -0.031654685735702515 0.0665593072772026 0.03850613534450531 -0.04867177456617355 -0.07119216024875641 -0.09299463778734207 0.08898385614156723 0.01860148459672928 0.20174816250801086 0.24427294731140137 0.219351664185524 -0.07250126451253891 -0.048499759286642075 -0.07523511350154877 -0.08912931382656097 0.002211574697867036 0.02495359443128109 -0.1040310263633728 -0.1616138517856598 -0.1395309716463089 -0.07212963700294495 0.03650319203734398 0.09392420202493668 0.014992842450737953 0.1414920687675476 0.07909388095140457 0.032950665801763535 0.13788963854312897 0.07137753814458847 0.06970902532339096 0.027646731585264206 -0.10100632160902023 -0.07424555718898773 -0.14388033747673035 -0.09916389733552933 0.007754501421004534 0.04772990196943283 0.038026247173547745 -0.14403750002384186 -0.22749513387680054 -0.05723286047577858 -0.07972083240747452 -0.017258508130908012 0.07883213460445404 0.08727313578128815 -0.009897456504404545 0.018812181428074837 -0.015216602012515068 0.06468141078948975 0.052907247096300125 -0.018027715384960175 -0.023577101528644562 0.07795607298612595 0.0620003379881382 0.03064631298184395 -0.06606841832399368 0.02004575915634632 -0.11003062129020691 -0.14019016921520233 -0.022803260013461113 -0.08022651821374893 -0.058715373277664185 0.03029341995716095 -0.156632199883461 -0.07374711334705353 -0.10365413129329681 0.04775449261069298 0.050845470279455185 -0.015045701526105404 0.01494221854954958 0.021339839324355125 0.07442724704742432 0.10564152896404266 0.055779069662094116 0.01836218126118183 0.0855155810713768 0.051065344363451004 -0.04426565021276474 -0.021175120025873184 0.0846414640545845 -0.03551400080323219 0.13219915330410004 -0.024698155000805855 -0.16570432484149933 -0.2021540254354477 -0.08752822875976562 0.1484956592321396 0.2138078510761261 0.14806857705116272 0.08542097359895706 0.07521095126867294 0.11469614505767822 0.13684490323066711 0.15011927485466003 0.1260324865579605 0.08580465614795685 0.08871965855360031 0.07707183063030243 0.11293856054544449 0.02611386962234974 0.01656641811132431 0.11693829298019409 -0.03907843306660652 -0.031029891222715378 -0.12635363638401031 0.054337870329618454 -0.027934806421399117 0.0733303651213646 0.1520012468099594 0.1549980640411377 0.18632644414901733 -0.01168127078562975 -0.01584165170788765 0.0031131075229495764 0.022363604977726936 0.013882247731089592 -0.03707226365804672 -0.06397555768489838 -0.1951979696750641 -0.13914017379283905 -0.07847432047128677 0.027663253247737885 -0.005328029859811068 0.08222343027591705 0.03390653803944588 0.07468092441558838 0.059205394238233566 0.08968856185674667 0.043752286583185196 0.09530560672283173 -0.029258884489536285 0.04628625512123108 -0.0030145372729748487 0.07919801771640778 -0.1002703532576561 -0.1113312765955925 0.08441701531410217 0.07424398511648178 -0.09966374933719635 -0.1543329507112503 -0.026484595611691475 -0.00019443554629106075 0.04858378320932388 -0.04843369126319885 -0.06070840358734131 -0.1078076884150505 -0.08148544281721115 -0.04062584042549133 0.06788373738527298 -0.0252294410020113 -0.07629703730344772 -0.04171832650899887 0.00485609145835042 -0.05799150839447975 -0.11085981875658035 -0.051573801785707474 -0.13587410748004913 -0.02769291400909424 -0.019701983779668808 0.05405457317829132 0.042234282940626144 -0.07923448085784912 0.05351573973894119 0.08575648069381714 -0.056833650916814804 -0.046604596078395844 0.09128855913877487 0.04483305662870407 -0.06670338660478592 0.031171461567282677 -0.010486657731235027 0.09097889810800552 0.0730963721871376 0.11528172343969345 0.005293763242661953 0.051338981837034225 -0.0022231126204133034 0.04383346065878868 0.10382623225450516 0.1084049716591835 0.03571600466966629 -0.06218728423118591 0.04352818429470062 -0.06375733762979507 -0.001966725569218397 -0.027506209909915924 0.07547636330127716 0.06145550683140755 0.012251852080225945 -0.05784150958061218 -0.03378213196992874 0.053868766874074936 0.02918078564107418 -0.006698439363390207 0.052539482712745667 -0.020620381459593773 -0.08633822947740555 -0.10591436922550201 -0.02023710310459137 0.07018378376960754 0.07430248707532883 -0.040129706263542175 -0.13167184591293335 -0.11067984998226166 -0.1286998689174652 -0.040437001734972 -0.03173603117465973 0.06771869957447052 0.05377037823200226 0.07342816144227982 -0.092474564909935 -0.027325987815856934 0.11001846939325333 0.07186274975538254 0.04868653044104576 -0.09020394831895828 0.0070603773929178715 0.018809569999575615 0.13536329567432404 0.03610965237021446 0.09808441251516342 0.015295011922717094 0.06655393540859222 0.05947429686784744 -0.023838097229599953 0.09836891293525696 -0.08384726941585541 -0.1133163571357727 0.051488958299160004 -0.06868129223585129 0.005221025552600622 -0.005904135759919882 -0.07662093639373779 -0.01311623863875866 -0.06338432431221008 -0.1499684751033783 0.06589274853467941 0.08949010074138641 0.09051772207021713 -0.023848626762628555 0.07608785480260849 -0.0036358931101858616 0.009815018624067307 0.08138815313577652 0.2246696949005127 0.17274624109268188 -0.07250068336725235 -0.06836523115634918 -0.0671122595667839 0.021705852821469307 0.03196937218308449 0.021824853494763374 -0.04567942023277283 0.008928820490837097 -0.07206398248672485 -0.05401510000228882 -0.05853680521249771 0.05376299470663071 -0.0628092959523201 0.03776821121573448 0.05378974601626396 -0.042913880199193954 0.10650596767663956 -0.06931992620229721 -0.07918351143598557 -0.08529752492904663 -0.018665391951799393 0.14340192079544067 0.10288017988204956 -0.021958375349640846 -0.04291103407740593 0.06009271740913391 0.0976056307554245 0.07128757238388062 0.13857337832450867 0.04585510492324829 -0.09505283087491989 0.041220396757125854 0.038268741220235825 -0.0012915891129523516 -0.027474479749798775 0.0531981959939003 -0.0025829505175352097 0.06881113350391388 0.06914179772138596 -0.07252174615859985 -0.014079558663070202 -0.12529785931110382 0.0718669444322586 0.07524843513965607 -0.04460984840989113 -0.09677630662918091 -0.08973941951990128 -0.02043951489031315 0.022234076634049416 0.11051066964864731 -0.06505212187767029 0.04175147786736488 -0.06405860930681229 0.05390314757823944 0.0347556509077549 0.02820023149251938 -0.14003843069076538 -0.20804868638515472 -0.1547681838274002 -0.11462866514921188 0.01650567352771759 -0.08995003998279572 -0.02952779270708561 0.05934453383088112 0.08214422315359116 -0.08696301281452179 -0.06513237953186035 -0.018691260367631912 -0.0775277316570282 0.03173314779996872 0.0004133383044973016 -0.09150772541761398 0.048886023461818695 0.040887344628572464 0.08796343207359314 -0.005269275046885014 0.08946750313043594 0.07350336760282516 0.08080627024173737 0.16850519180297852 0.01682046800851822 0.003144449321553111 0.034972015768289566 -0.07149337232112885 -0.10509856045246124 0.042729832231998444 -0.04628243297338486 -0.11054912954568863 -0.04036259651184082 0.02299625612795353 -0.051686663180589676 -0.09625239670276642 -0.10766388475894928 0.0769137367606163 0.07271981984376907 0.08987823873758316 0.07442102581262589 0.07816862314939499 0.14692088961601257 0.12087450921535492 -0.019427930936217308 0.045563530176877975 0.03505626693367958 -0.12577369809150696 -0.00923235435038805 -0.12081051617860794 -0.06233483925461769 -0.14663191139698029 -0.14695285260677338 -0.14021533727645874 0.07123493403196335 0.045183129608631134 -0.060583680868148804 -0.018437763676047325 0.07191552966833115 -0.001853479421697557 0.07339992374181747 -0.025055360049009323 0.12146813422441483 0.13959133625030518 0.07593077421188354 0.018033215776085854 0.09794402122497559 0.10604197531938553 0.07472126930952072 -0.08268284797668457 0.07214623689651489 -0.11839862167835236 -0.0764402225613594 -0.020495479926466942 -0.03451426699757576 0.040540605783462524 -0.08515472710132599 -0.12594318389892578 -0.07032838463783264 -0.021667027845978737 -0.10705414414405823 -0.13679897785186768 -0.13479015231132507 -0.002949576824903488 0.0015345483552664518 -0.04622730612754822 -0.041463907808065414 -0.02435925044119358 -0.009170196019113064 0.16758109629154205 0.20966997742652893 0.17257791757583618 0.2462429702281952 0.26756203174591064 0.005377321969717741 0.02186439000070095 -0.06843509525060654 -0.05422820895910263 -0.10105115175247192 -0.08621030300855637 -0.09469646960496902 -0.0007278345292434096 0.10306519269943237 0.13298283517360687 0.030305929481983185 0.02588488906621933 0.04974919930100441 0.0454353503882885 0.07797028869390488 -0.07215645909309387 0.0659230649471283 0.0599658228456974 0.08994320780038834 0.11625904589891434 0.08977729082107544 0.03835088014602661 -0.059562064707279205 -0.004023189656436443 0.07938779890537262 0.07757295668125153 0.05903608724474907 0.03156096488237381 0.07020352780818939 0.1597646176815033 -0.025559505447745323 -0.06868298351764679 -0.022508272901177406 -0.13968278467655182 -0.05915568768978119 -0.025573864579200745 -0.06204422563314438 -0.04051816835999489 0.048915307968854904 -0.1390366107225418 0.0782395750284195 -0.00853373296558857 0.08878377825021744 -0.015520978718996048 0.010764987207949162 -0.0008740771445445716 0.0015147598460316658 -0.0722491443157196 0.11071770638227463 0.027831435203552246 -0.06766010820865631 -0.08243732154369354 -0.10939034074544907 -0.013367937877774239 0.01374527532607317 0.06704650074243546 -0.07425248622894287 -0.07891298085451126 -0.14910686016082764 -0.005802241154015064 -0.027063196524977684 0.00039467791793867946 -0.023666055873036385 0.038792502135038376 -0.05704252049326897 0.002079169498756528 0.1716819405555725 0.10580112785100937 -0.018148032948374748 -0.0982610210776329 0.08449438959360123 0.15136310458183289 0.12207289785146713 0.055422116070985794 0.09488129615783691 -0.16222752630710602 -0.1516682356595993 -0.14469408988952637 0.021529659628868103 0.2399335503578186 -0.05537910759449005 -0.12702816724777222 -0.025245755910873413 -0.05626805126667023 -0.04994627460837364 0.004377193748950958 0.00941009633243084 0.0666324645280838 0.08018536120653152 -0.04147013649344444 0.05804131552577019 -0.051630206406116486 0.03935099393129349 0.17547522485256195 0.20975865423679352 -0.04156452789902687 -0.08843623101711273 -0.16718758642673492 0.12724047899246216 0.14102213084697723 -0.09447331726551056 -0.18870340287685394 -0.22859661281108856 -0.08071403950452805 -0.15603940188884735 0.014466432854533195 -0.029764534905552864 -0.008000784553587437 -0.0004634718643501401 -0.10081565380096436 0.024662412703037262 0.0898723155260086 0.14689697325229645 0.02206365577876568 0.024660252034664154 -0.03370434790849686 0.051494184881448746 0.07029084861278534 0.12440457940101624 0.2067030817270279 -0.005445023998618126 -0.13188527524471283 -0.08980606496334076 0.0955493375658989 0.09675578027963638 -0.08456093072891235 -0.17270204424858093 -0.14657752215862274 -0.13588747382164001 -0.05871562659740448 -0.020602166652679443 -0.071452297270298 -0.0341050922870636 -0.15154889225959778 -0.13527728617191315 0.17245329916477203 0.21281220018863678 0.14357280731201172 0.13687622547149658 0.08200456947088242 0.15044017136096954 0.0003830024797935039 -0.05542999133467674 0.13116398453712463 0.17881812155246735 -0.1525646448135376 -0.14934739470481873 -0.2391253262758255 -0.03127540275454521 -0.01189402211457491 0.13864676654338837 0.10512832552194595 -0.04934608191251755 -0.1486688107252121 -0.2539483904838562 0.2269626259803772 0.20806676149368286 0.1700812131166458 -0.007960769347846508 -0.03164442628622055 0.027795786038041115 -0.00332717876881361 0.08278827369213104 0.03970029205083847 -0.1388312727212906 -0.0181861761957407 0.13133400678634644 0.12268748879432678 0.0554967001080513 0.05952225625514984 0.06547360867261887 0.072059266269207 0.10694137960672379 0.1845155656337738 0.08886515349149704 -0.1625586897134781 -0.15894708037376404 -0.09653722494840622 0.014431293122470379 0.16225087642669678 -0.04730100557208061 -0.19357925653457642 -0.11987705528736115 -0.10158085823059082 -0.040700338780879974 -0.01396937109529972 -0.0512649267911911 0.0356452576816082 0.1364787518978119 0.02321794629096985 -0.12962116301059723 -0.1290140151977539 0.09397885948419571 0.048729341477155685 -0.03214063122868538 -0.06640218198299408 0.06073976308107376 0.06828830391168594 0.012950588949024677 -0.01418606098741293 0.0810142531991005 0.051331523805856705 0.03152669966220856 -0.02029646560549736 -0.01077753584831953 0.014739918522536755 -3.762235428439453e-05 -0.001369117060676217 -0.021744366735219955 0.056282225996255875 0.009633912704885006 -0.11076483875513077 -0.16270405054092407 -0.01821204088628292 0.10437683761119843 -0.03120393306016922 -0.17194148898124695 -0.015882518142461777 -0.029579857364296913 0.10839463025331497 -0.006768840830773115 0.03722645714879036 0.07821740955114365 0.1424093097448349 -0.05426232889294624 0.11120893806219101 0.03366637974977493 0.14055782556533813 0.08872486650943756 -0.03434566408395767 0.11512202769517899 0.1337483823299408 0.012074127793312073 -0.09168966114521027 0.008212139829993248 0.010153708979487419 -0.041888248175382614 -0.04405461624264717 0.02904888615012169 0.053423795849084854 -0.04170357063412666 -0.10370535403490067 0.007179230451583862 0.07636210322380066 0.06474325060844421 0.05138147622346878 -0.07066676020622253 0.04535597190260887 0.06310038268566132 0.026014849543571472 0.03599434345960617 -0.01203154306858778 0.05478762835264206 0.011197974905371666 0.04936842992901802 -0.02263110689818859 -0.06969087570905685 -0.07513314485549927 -0.007085075136274099 -0.05898847058415413 -0.028905145823955536 -0.08048548549413681 -0.09261257201433182 0.08670492470264435 0.07943494617938995 -0.04076994210481644 -0.06487675756216049 0.051576994359493256 0.12191153317689896 0.02841518633067608 -0.05992760881781578 -0.0011294482974335551 0.024001969024538994 0.038591381162405014 0.03153618425130844 0.05091330409049988 0.10493814945220947 0.04271223768591881 -0.04659391939640045 -0.042737022042274475 0.0654488205909729 -0.034927524626255035 0.05444483831524849 0.05327240750193596 -0.0019268292235210538 -0.12549471855163574 -0.060381870716810226 0.012608380056917667 -0.107010617852211 -0.08164079487323761 -0.040902651846408844 0.062242381274700165 -0.0681828111410141 -0.05739098787307739 -0.18513230979442596 0.07062271237373352 0.009604771621525288 0.007677718997001648 -0.14922884106636047 -0.13175684213638306 0.018514882773160934 0.062384333461523056 -0.1883280873298645 -0.17990724742412567 0.0017218831926584244 -0.02404022589325905 -0.21985656023025513 -0.08106473088264465 -0.04592709615826607 0.0539451465010643 -0.012559602037072182 -0.0923737958073616 0.027624962851405144 0.08681302517652512 0.09514102339744568 0.040617961436510086 -0.08370316028594971 0.04320862144231796 0.03401748836040497 0.062026020139455795 -0.03197656199336052 0.06521978974342346 -0.014848943799734116 0.0972503125667572 -0.03158149495720863 0.03798289597034454 -0.025731975212693214 0.13234491646289825 0.10217801481485367 0.05549180507659912 0.0181630477309227 0.056092556565999985 -0.048085592687129974 -0.03353465721011162 -0.0565309077501297 -0.16429731249809265 0.09763132780790329 0.06344716995954514 -0.04219459742307663 -0.16600379347801208 -0.1513216197490692 0.14722110331058502 0.19193895161151886 -0.004036261700093746 -0.140877366065979 -0.14976538717746735 0.15949496626853943 0.16294234991073608 -0.21127471327781677 -0.18184684216976166 0.12820526957511902 0.23942556977272034 0.04722275212407112 -0.2396659553050995 -0.09729601442813873 0.0660228282213211 0.1301305741071701 -0.04182612523436546 -0.10848601162433624 0.024440251290798187 0.0041933306492865086 0.006739364936947823 -0.024089064449071884 -0.03295784816145897 0.05011974647641182 -0.10877382010221481 -0.12981361150741577 0.006820316892117262 0.0816289484500885 -0.031514763832092285 -0.1331842988729477 -0.08675459027290344 0.018418176099658012 0.008427554741501808 -0.15097512304782867 -0.18061912059783936 0.06179593503475189 0.1309606283903122 -0.03793581202626228 -0.1250552386045456 0.08110206574201584 0.13855795562267303 0.00552833778783679 0.04611948877573013 -0.010473533533513546 0.0374671071767807 0.007638539653271437 0.1415305733680725 0.1216602697968483 -0.0611296221613884 -0.07860943675041199 -0.06296001374721527 0.12000054866075516 0.14310409128665924 -0.12289649248123169 -0.29539695382118225 0.017601732164621353 0.1878642588853836 0.002918162615969777 -0.17548641562461853 -0.24794715642929077 0.1475684642791748 0.1974550038576126 -0.01560593768954277 -0.04488231614232063 -0.06762561202049255 0.12317273765802383 0.0644296258687973 0.05262167379260063 -0.0007519511855207384 -0.0009470306104049087 0.0061910562217235565 -0.077314093708992 -0.014232886955142021 0.029751073569059372 -0.09593186527490616 0.02864350937306881 -0.04084409773349762 0.14242702722549438 -0.03363312780857086 -0.05139100179076195 0.015879817306995392 0.08272738754749298 0.11926016211509705 -0.03423037379980087 -0.12975311279296875 0.0061957016587257385 0.09568749368190765 0.006627341266721487 -0.12069939076900482 -0.03955978527665138 0.10943076759576797 0.13556821644306183 0.05250641331076622 0.04242589697241783 0.13316112756729126 0.08233022689819336 0.057596996426582336 -0.006902570370584726 -0.15844279527664185 -0.03012118488550186 -0.029438165947794914 -0.04124908894300461 -0.07560954988002777 -0.1494627445936203 -0.19436688721179962 -0.15308023989200592 -0.20946048200130463 -0.17170752584934235 -0.06011930853128433 -0.052107684314250946 -0.2167963683605194 -0.23600545525550842 0.015465634874999523 0.07939035445451736 9.409816993866116e-05 -0.21692298352718353 -0.11104018241167068 0.15622617304325104 0.07332795858383179 -0.06165534630417824 0.10111090540885925 -0.03391451761126518 0.0030249583069235086 -0.05415036156773567 0.08946006745100021 0.09120985120534897 0.04640526697039604 -0.05962164327502251 -0.08717823028564453 0.008685498498380184 0.10476234555244446 0.12103467434644699 -0.07923395931720734 -0.08379945904016495 0.022936630994081497 0.0893755555152893 0.17192675173282623 -0.10050775855779648 -0.0960552990436554 -0.061534635722637177 0.19279801845550537 0.12370067089796066 -0.015166325494647026 -0.008149533532559872 -0.019017845392227173 -0.05597575753927231 -0.08606921881437302 -0.08277622610330582 -0.06575988233089447 0.12369228899478912 0.016125226393342018 -0.12211032211780548 0.07984193414449692 -0.05717625468969345 0.06909748166799545 0.0343896709382534 -0.16067136824131012 0.043801359832286835 -0.07000601291656494 0.043781738728284836 0.09498125314712524 0.08414260298013687 0.09543606638908386 0.032777681946754456 0.04114340990781784 -0.037430208176374435 -0.029745910316705704 0.011285113170742989 -0.01064228918403387 -0.026304543018341064 0.02739623188972473 0.04557551443576813 -0.08260703831911087 -0.09842412918806076 -0.029818693175911903 0.042130015790462494 0.03701932355761528 -0.1336396336555481 -0.03277996927499771 0.04523079842329025 -0.072655588388443 0.030418135225772858 -0.06061771884560585 0.012738569639623165 -0.06559908390045166 0.10426601022481918 0.050492558628320694 0.028105324134230614 -0.07143069058656693 0.11300207674503326 0.17099718749523163 0.009587202221155167 0.0037252611946314573 -0.024907244369387627 0.07503724098205566 0.05607086792588234 -0.10924798250198364 -0.08637716621160507 0.0943635106086731 0.10329857468605042 0.1253507286310196 -0.026888597756624222 -0.10360447317361832 -0.0901358351111412 0.001976653467863798 0.0955064594745636 0.025767028331756592 -0.04708124324679375 -0.01804164983332157 0.017542129382491112 0.13263335824012756 0.05303443968296051 0.10626925528049469 0.060933586210012436 0.0346655398607254 0.09577704966068268 -0.045471202582120895 -0.09021428972482681 -0.15527589619159698 0.028184689581394196 -0.0127330981194973 -0.027383096516132355 -0.1423286646604538 0.012666013091802597 -0.037758711725473404 0.06240239366889 0.08603242039680481 -0.08908094465732574 -0.006788051221519709 0.10411163419485092 0.12580162286758423 0.12990178167819977 0.051467347890138626 0.07398969680070877 0.06431894749403 0.13989876210689545 0.1460200697183609 0.012664238922297955 0.0029943794943392277 -0.06151924282312393 0.058036938309669495 -0.04754886403679848 -0.09835530817508698 -0.03239579498767853 0.009094206616282463 -0.041670333594083786 -0.030209898948669434 -0.09175105392932892 -0.028841327875852585 -0.1302449107170105 0.008313799276947975 -0.055044155567884445 -0.0362473800778389 -0.14136667549610138 -0.17704422771930695 0.0029903643298894167 0.043540194630622864 0.1165042296051979 0.06866103410720825 -0.006151124369353056 0.042262692004442215 0.13341890275478363 0.1499752253293991 0.14477525651454926 0.0039067817851901054 -0.07642680406570435 -0.0625602975487709 -0.09062230587005615 -0.18630701303482056 -0.021135181188583374 -0.09000661224126816 -0.11333678662776947 -0.1116594597697258 -0.026536978781223297 0.13218756020069122 -0.0030281594954431057 -0.15229381620883942 -0.010212560184299946 -0.035733528435230255 0.12319488078355789 -0.028793347999453545 -0.052781905978918076 -0.1380743831396103 -0.030647622421383858 0.07018140703439713 0.11644438654184341 -0.07150968909263611 -0.03820445016026497 -0.052317649126052856 -0.0003423656162340194 -0.00031762311118654907 0.04041440039873123 0.09923098981380463 -0.004488866776227951 0.029124366119503975 -0.056891560554504395 -0.14070433378219604 -0.14362138509750366 -0.16446973383426666 0.03616213798522949 -0.08807893842458725 -0.07375819981098175 -0.01633097231388092 0.035528622567653656 -0.034811265766620636 0.05911282077431679 0.11899770051240921 0.16873863339424133 0.1112973764538765 0.04452979937195778 -0.07220426201820374 0.012753674760460854 -0.04820062220096588 0.04709278419613838 -0.11091578751802444 -0.15909568965435028 -0.04791802167892456 -0.041902169585227966 0.024729065597057343 -0.022487619891762733 -0.09157930314540863 -0.0004679671546909958 -0.03330469876527786 -0.0875738337635994 -0.029717089608311653 -0.1449519842863083 -0.1369345635175705 -0.005760319530963898 -0.05006066709756851 0.08649591356515884 0.09970159083604813 0.12406620383262634 0.044784434139728546 0.05229438841342926 0.1015951931476593 0.06257191300392151 0.1726914346218109 0.03072819486260414 0.047869663685560226 0.02662464790046215 -0.09864018112421036 0.015078138560056686 -0.036580510437488556 -0.0039076595567166805 0.03970487415790558 -0.09318141639232635 -0.2039790153503418 -0.1262352168560028 -0.018095960840582848 0.06784391403198242 0.09841255098581314 0.045499544590711594 0.07107458263635635 0.05332989618182182 0.003043358912691474 0.1278410255908966 0.01584804058074951 0.06741645187139511 -0.0635455995798111 0.025119643658399582 -0.0815422385931015 -0.03540870174765587 -0.03505020588636398 -0.10324182361364365 0.014794548973441124 0.04433286190032959 -0.014361477456986904 -0.10329805314540863 0.052883535623550415 0.04636356607079506 -0.0401027537882328 -0.05638867989182472 -0.0997626781463623 -0.10521908849477768 0.13223542273044586 0.12155505269765854 -0.015543787740170956 0.10210048407316208 0.006964921951293945 0.07166983187198639 0.008451486006379128 0.13428081572055817 0.086619533598423 0.03104250133037567 0.0682908222079277 0.0035618229303508997 -0.013310319744050503 -0.024786656722426414 0.02450394444167614 0.007672033738344908 -0.0218878835439682 0.011361322365701199 0.009604226797819138 0.01747087761759758 0.030995678156614304 0.011283154599368572 0.009352978318929672 0.11625722050666809 0.05762122943997383 0.1566888988018036 0.1507241278886795 0.22944995760917664 0.11739795655012131 0.14743444323539734 0.12316564470529556 0.08869654685258865 0.11204081773757935 0.04818519204854965 0.05836565047502518 -0.059973400086164474 -0.09461160004138947 -0.19744770228862762 -0.16811101138591766 -0.1525220423936844 -0.05265996232628822 0.09751458466053009 0.10844744741916656 -0.03142943233251572 -0.10661564022302628 -0.11743082851171494 -0.11494238674640656 -0.009386450983583927 -0.07844734191894531 0.03382883965969086 -0.005292666144669056 -0.04656248539686203 -0.17133048176765442 -0.03644436225295067 -0.10594470053911209 0.013868135400116444 0.005728758871555328 -0.01236062403768301 0.1559407114982605 0.07270296663045883 0.07971322536468506 -0.0023548747412860394 0.15326498448848724 0.04024079442024231 0.0015081549063324928 0.09994003921747208 0.026209283620119095 -0.06950507313013077 -0.08740737289190292 -0.05120828002691269 
conv2_bias 16
0.08433833718299866 0.008456357754766941 -0.01849242113530636 -0.06149832904338837 0.013175515457987785 -0.09051600843667984 0.11595194786787033 -0.004017218481749296 0.029972713440656662 0.014808813109993935 -0.01428559422492981 -0.012682191096246243 -0.07676467299461365 -0.07971599698066711 -0.08163329213857651 -0.02506352961063385 
fc1_weight 48000
-0.04609210416674614 -0.015529680997133255 0.040948331356048584 -0.012460911646485329 -0.02858462929725647 -0.020459139719605446 0.019808348268270493 -0.026856323704123497 -0.03650319203734398 -0.04947777837514877 -0.010193062014877796 0.028562940657138824 0.0010656192898750305 0.004276033490896225 -0.022537631914019585 -0.045035749673843384 0.026328912004828453 0.01145925559103489 0.03705689683556557 -0.012368041090667248 0.010772633366286755 -0.023536015301942825 -0.00688664335757494 0.027020633220672607 -0.0351131409406662 0.017494622617959976 0.029362507164478302 -0.015175219625234604 -0.038702644407749176 0.02114149183034897 0.0036623242776840925 -0.0008678822196088731 0.0121715497225523 -0.02940046414732933 -0.019143499433994293 0.016401708126068115 -0.017862340435385704 -0.01888609118759632 0.008852624334394932 -0.025761663913726807 0.015414787456393242 0.001040268805809319 -0.021023962646722794 0.03522336855530739 0.03029978834092617 -0.029725346714258194 -0.037122808396816254 -0.04551167041063309 0.015906093642115593 -0.00883571058511734 0.005910602863878012 -0.016203925013542175 -0.028950145468115807 -0.00390477292239666 -0.021100852638483047 -0.04463348537683487 -0.05470138043165207 -0.01882488839328289 0.03417201712727547 0.03792782500386238 -0.02328069880604744 -0.022543027997016907 0.0005017307121306658 -0.05145081877708435 -0.03321830555796623 0.02489583194255829 0.04417754337191582 -0.05303509905934334 0.02830708958208561 0.030884627252817154 0.02340036630630493 -0.03236178681254387 0.03272624313831329 -0.05213995650410652 -0.037479549646377563 -0.052530813962221146 0.04022015631198883 0.03085300698876381 -0.011664487421512604 0.03434174507856369 0.033558107912540436 0.009028712287545204 -0.02846471220254898 0.02024921216070652 -0.042704980820417404 0.014146670699119568 0.042891234159469604 0.007133393082767725 -0.018079303205013275 -0.013800895772874355 0.029377901926636696 0.029437215998768806 0.018144648522138596 0.03506137803196907 -0.025951914489269257 -0.01399358082562685 0.026708031073212624 -0.0072996411472558975 0.027858255431056023 -0.015459377318620682 -0.012029475532472134 0.012609648518264294 0.012756026349961758 -0.026048840954899788 -0.020367218181490898 -0.023895686492323875 0.02127165161073208 -0.05008836090564728 0.034007322043180466 -0.04363244026899338 0.035859253257513046 0.026435989886522293 -0.037033721804618835 -0.041735436767339706 -0.029312318190932274 -0.004591160919517279 0.039973657578229904 -0.03186044469475746 -0.04904241859912872 0.018238859251141548 0.01915087178349495 -0.03564048558473587 0.033419348299503326 -0.02188996970653534 -0.019829973578453064 -0.02062281407415867 0.007739310152828693 -0.0011330385459586978 0.03284724801778793 0.02684243582189083 0.012331156060099602 0.03411252424120903 -0.023222679272294044 0.027312904596328735 0.0025800769217312336 -0.021097881719470024 0.006226119119673967 -0.022708073258399963 -0.011162392795085907 0.0357915535569191 -0.021527016535401344 0.006253709085285664 -0.0011058254167437553 -0.00960299652069807 -0.029887966811656952 -0.008712010458111763 0.0070299506187438965 0.02725793607532978 -0.009834793396294117 0.032172415405511856 -0.05119447410106659 -0.02072790637612343 -0.030554188415408134 -0.0061718919314444065 -0.053035229444503784 0.043762367218732834 -0.009257310070097446 -0.04997507855296135 -0.030412621796131134 -0.0067191049456596375 -0.05051561817526817 -0.006157550495117903 0.0433591865003109 -0.02599318139255047 -0.04674435779452324 -0.017542779445648193 -0.020721357315778732 -0.010399765335023403 -0.0201122984290123 -0.05094705894589424 -0.0010261075804010034 0.02114568091928959 0.03823929280042648 0.02413228712975979 -0.026080075651407242 0.030616488307714462 -0.02124144323170185 -0.05050957575440407 -0.045300424098968506 -0.028093812987208366 0.03359018638730049 -0.03834469988942146 0.005741757340729237 -0.03206935524940491 -0.03211225941777229 0.027138959616422653 -0.03571072220802307 -0.02793494239449501 0.011756987310945988 0.025086484849452972 -0.05351153388619423 -0.033281173557043076 -0.05375375971198082 0.02997293695807457 0.012522362172603607 -0.030809128656983376 -0.000533868616912514 -0.021620089188218117 -0.038696762174367905 -0.031185001134872437 0.016787270084023476 -0.016361314803361893 0.011972788721323013 -0.053489647805690765 0.017032189294695854 0.04165564104914665 0.016723478212952614 0.020253269001841545 0.018931498751044273 0.026608657091856003 -0.0509970523416996 0.027857907116413116 -0.03921729698777199 -0.013045542873442173 -0.013803581707179546 -0.03478990122675896 0.0002951543719973415 -0.024391084909439087 -0.04897674545645714 -0.04445916786789894 0.03647642210125923 0.04157036170363426 -0.026142021641135216 0.03151632472872734 -0.013715097680687904 -0.04650184139609337 -0.03498129919171333 0.03764192759990692 -0.018130164593458176 -0.016410695388913155 -0.053419824689626694 0.009773820638656616 -0.015872227028012276 -0.025875482708215714 -0.047553278505802155 -0.01886768639087677 -0.03233376890420914 0.03923001512885094 -0.0475936084985733 -0.003285092068836093 0.023709286004304886 0.029545342549681664 -0.02430611476302147 0.0068960655480623245 -0.04487563297152519 0.014982283115386963 -0.014154020696878433 -0.03315556049346924 -0.007795504294335842 -0.02252376079559326 -0.053345274180173874 0.012145518325269222 -0.041044995188713074 -0.0033163076732307673 0.011663349345326424 -0.04970921203494072 -0.0023442148230969906 0.04284977912902832 -0.03522741049528122 -0.027777930721640587 -0.041643835604190826 0.040488533675670624 0.012100712396204472 -0.04147908464074135 -0.04545801505446434 -0.04441532492637634 -0.00458196084946394 -0.023503387346863747 -0.002998007694259286 -0.023105492815375328 -0.02649722807109356 0.031201748177409172 -0.02752472274005413 0.015026492066681385 -0.01500220037996769 -0.03459480032324791 0.03898165747523308 -0.02782687544822693 -0.04003002122044563 -0.04782787337899208 0.017727572470903397 -0.0025209758896380663 -0.04367518052458763 -0.045097947120666504 -0.015435362234711647 0.026164624840021133 0.017000561580061913 -0.01947440765798092 0.0008753439760766923 0.011210066266357899 -0.028253156691789627 0.0020349754486232996 0.009056229144334793 -0.013144377619028091 0.009634873829782009 0.011342737823724747 0.004662638995796442 -0.002639306243509054 0.003906959667801857 0.006274201907217503 -0.034783538430929184 0.02697257325053215 0.007752374745905399 0.018924251198768616 -0.05184468626976013 -0.0409955196082592 -0.026401517912745476 0.022761132568120956 -0.01275573205202818 -0.004290611017495394 0.0059502036310732365 0.021697204560041428 -0.009120428934693336 -0.016613245010375977 -0.053079888224601746 0.001733328914269805 0.0035870480351150036 -0.02619856409728527 -0.02401593327522278 -0.05091627314686775 -0.014523357152938843 0.013397373259067535 0.022090168669819832 0.019804732874035835 -0.00664002588018775 0.0080209169536829 -0.038443006575107574 -0.00021920031576883048 -0.016396915540099144 0.019715966656804085 -0.014379112049937248 0.01060851663351059 0.043692417442798615 0.006178984884172678 -0.042019978165626526 -0.007023109123110771 -0.02887670323252678 0.005159938242286444 -0.05055660381913185 0.015974052250385284 0.043536316603422165 -0.011470342986285686 0.00834454782307148 0.01649552397429943 0.022089237347245216 0.003981387708336115 0.029175972566008568 -0.03482938930392265 0.015155249275267124 -0.028399506583809853 -0.03296542167663574 -0.04472021386027336 0.020168276503682137 -0.022934848442673683 -0.034988559782505035 0.03464379906654358 0.012968511320650578 0.031203025951981544 -0.03472476452589035 -0.03348686546087265 0.029105346649885178 -0.04278406873345375 -0.03232312202453613 -0.012112729251384735 -0.0509156808257103 0.03373805433511734 0.03752908110618591 -0.00976591743528843 -0.038071949034929276 -0.026601724326610565 -0.03852277621626854 -0.023008858785033226 0.030759964138269424 -0.019052879884839058 0.0027396290097385645 -0.024161819368600845 -0.023732271045446396 0.015298062935471535 -0.028223436325788498 0.03822888061404228 0.042875368148088455 -0.05095047503709793 0.039376627653837204 -0.030380181968212128 -0.007348235230892897 0.03989884629845619 -0.042842984199523926 -0.01519851479679346 0.02597629651427269 0.016576869413256645 -0.028703294694423676 -0.03294097259640694 -0.040758587419986725 0.01480933465063572 0.03706210106611252 -0.019402185454964638 -0.05282411351799965 -0.008164599537849426 -0.03244079649448395 -0.026606688275933266 -0.06815340369939804 0.0026898414362221956 -0.035772655159235 0.042438410222530365 0.06626482307910919 0.016961656510829926 0.007126145530492067 -0.008552451618015766 0.040957339107990265 0.033863671123981476 -0.03286727890372276 0.05693303421139717 -0.007958711124956608 -0.03524033725261688 -0.03261684998869896 0.048069994896650314 0.02007739618420601 -0.034773435443639755 0.03262556716799736 0.07073336094617844 -0.07453721016645432 0.016057493165135384 0.00695637846365571 0.05507204681634903 0.0460093729197979 0.06872554123401642 0.004144211765378714 0.09551836550235748 0.11251847445964813 -0.015202748589217663 0.044458650052547455 0.021277785301208496 0.028152011334896088 -0.17564819753170013 -0.15129724144935608 -0.007268182467669249 -0.0394008494913578 -0.06936301290988922 -0.03751286864280701 0.050026729702949524 -0.0444965660572052 -0.05511002242565155 -0.007360802497714758 0.016123870387673378 0.03209604322910309 -0.05469348281621933 -0.005622567143291235 0.04004170000553131 -0.0006184026133269072 0.05028073117136955 -0.06906816363334656 -0.05715664476156235 -0.0013555014738813043 -0.0341259203851223 0.013284856453537941 -0.09764092415571213 -0.03350081667304039 0.012699908576905727 0.026671523228287697 -0.02050713449716568 0.049908313900232315 0.09397777169942856 -0.005048302002251148 -0.042008187621831894 0.08018241822719574 -0.051766667515039444 -0.013289877213537693 -0.004790319129824638 0.032085150480270386 0.06844539195299149 -0.08458920568227768 -0.006388727575540543 0.06786175817251205 0.022290322929620743 -0.06155629828572273 0.029212649911642075 -0.0038228491321206093 0.02017052471637726 -0.012561282142996788 -0.023247012868523598 0.03638209402561188 -0.007005438674241304 -0.01162701565772295 0.011824613437056541 0.0028785255271941423 -0.046494260430336 0.04766185209155083 -0.03684748336672783 -0.06788786500692368 0.007613832131028175 -0.02201678231358528 0.04470858350396156 -0.057961899787187576 -0.05144956707954407 0.020925506949424744 -0.034008827060461044 -0.0361836813390255 0.03483876585960388 0.020424745976924896 -0.004477325826883316 -0.052610401064157486 0.02869345061480999 0.02776719443500042 -0.03284401819109917 0.006609810516238213 -0.07179681211709976 0.021027613431215286 -0.010456202551722527 0.05248653516173363 0.06079006940126419 -0.020547084510326385 0.017418449744582176 0.10042062401771545 0.050521865487098694 -0.008964166976511478 0.04236842319369316 0.08175268024206161 0.047651972621679306 0.03956999257206917 -0.031431037932634354 0.15142886340618134 0.07445845752954483 0.017199670895934105 0.006124407984316349 -0.03392006456851959 -0.007418292108923197 0.0009284576517529786 0.01830281876027584 -0.0447566844522953 -0.044376105070114136 -0.11764907091856003 0.05980180948972702 0.02894546277821064 -0.002464148448780179 -0.00737143075093627 0.010146109387278557 -0.02210264466702938 -0.07654625922441483 0.007350219413638115 0.03709255903959274 0.01586845889687538 0.011945173144340515 0.07243286073207855 -0.007939478382468224 0.041377823799848557 -0.06455936282873154 0.05621125549077988 0.027966435998678207 0.032138124108314514 -0.01716664247214794 -0.03310772031545639 -0.033316321671009064 0.023507125675678253 0.13885609805583954 0.1785328984260559 -0.057101693004369736 -0.01540355570614338 0.043540213257074356 0.14537404477596283 0.1760345995426178 -0.10856848210096359 -0.02977643348276615 0.03190445527434349 -0.002735248999670148 -0.05232179909944534 0.054901670664548874 -0.06124749034643173 -0.05325279012322426 -0.03832440450787544 -0.07566872239112854 0.062185753136873245 0.11160058528184891 0.050335150212049484 0.005941090639680624 0.03228200972080231 -0.035983167588710785 -0.019886326044797897 -0.008256467990577221 0.01822364702820778 0.07196246832609177 0.015019848011434078 -9.086022328119725e-05 0.037509430199861526 -0.043312400579452515 -0.020115504041314125 0.02391672134399414 -0.007072005420923233 -0.044173043221235275 0.0024218952748924494 -0.053541701287031174 -0.008095094002783298 0.05902712047100067 0.0051650251261889935 -0.052797991782426834 0.017215410247445107 -0.0339057557284832 -0.021571103483438492 0.04087883234024048 -0.007347931619733572 0.061351943761110306 -0.025655681267380714 0.00900232419371605 0.05750836431980133 0.03917863965034485 0.0239705853164196 -0.064190573990345 -0.053998399525880814 0.018904192373156548 -0.009322836063802242 0.10488245636224747 -0.12364071607589722 -0.07559981197118759 0.02216639555990696 0.06928308308124542 0.12439987808465958 -0.009877702221274376 0.02883453667163849 0.0566333644092083 -0.036775022745132446 0.013134986162185669 0.1189400926232338 0.0018281274242326617 0.08872005343437195 0.01952570304274559 -0.12276794761419296 0.012169349938631058 -0.03593585640192032 -0.03293915465474129 -0.03522534668445587 -0.026708336547017097 -0.03646572679281235 0.0005540275597013533 -0.0581912137567997 -0.037303630262613297 0.022783756256103516 -0.011986923404037952 0.049390386790037155 0.04790261387825012 -0.045159678906202316 -0.002466171979904175 0.00957329198718071 0.03440383821725845 -0.03553816303610802 -0.005278403405100107 0.0565980039536953 -0.04253733158111572 -0.0024279437493532896 -0.022910121828317642 0.043341539800167084 -0.021041296422481537 -0.04887423291802406 -0.015289228409528732 0.06657887995243073 0.05880558118224144 0.12062682211399078 -0.04051648825407028 0.016909098252654076 0.060005709528923035 0.027522221207618713 -0.03894022852182388 0.01221818570047617 0.019077656790614128 -0.02407439984381199 -0.07110486179590225 -0.017560817301273346 0.07467875629663467 -0.03696358576416969 0.03282196447253227 -0.018738772720098495 -0.0029337892774492502 -0.02307518757879734 0.003398274537175894 0.023385724052786827 0.007952038198709488 0.05005987361073494 0.02763195149600506 -0.02051214873790741 0.01933864876627922 -0.05413048714399338 0.09687798470258713 -0.05024222657084465 0.011502055451273918 0.002882445929571986 0.04663802310824394 0.17248161137104034 -0.06717243045568466 -0.0009606839739717543 0.02097863145172596 -0.019323069602251053 0.011476418003439903 0.10322173684835434 0.006308575626462698 -0.03406972438097 -0.06095040217041969 -0.10709555447101593 0.07597178965806961 -0.01545940712094307 0.054606761783361435 -0.04911451041698456 -0.037697065621614456 -0.02553553320467472 -0.06830336153507233 0.0196387879550457 -0.006426620297133923 0.0500422902405262 -0.01021691132336855 -0.016695750877261162 0.05345400422811508 0.039468951523303986 -0.05308438464999199 -0.01986715942621231 0.021753814071416855 -0.020268166437745094 -0.1454247385263443 -0.0770069882273674 0.012305469252169132 -0.00328119657933712 -0.06397422403097153 -0.0016652753110975027 0.014880945906043053 -0.05403883010149002 -0.01634317822754383 0.044036317616701126 0.05601212754845619 0.08400005847215652 0.005831660702824593 0.0357513464987278 -0.006242068484425545 0.011601939797401428 -0.07164444774389267 0.09777457267045975 0.01155517902225256 0.060083068907260895 -0.07881554216146469 -0.09449256211519241 0.07933175563812256 0.1369735598564148 -0.01473663467913866 -0.055011749267578125 0.04641704261302948 -0.03347603604197502 -0.03595500811934471 -0.0826539471745491 0.027320992201566696 -0.023947546258568764 -0.03548368811607361 -0.06426121294498444 0.005110087338835001 0.05781961977481842 0.06321109086275101 -0.047071319073438644 0.025214051827788353 -0.022963257506489754 -0.042986638844013214 -0.02291232906281948 -0.03357607126235962 0.027535604313015938 0.005382387433201075 -0.0174394603818655 -0.036010611802339554 0.044690098613500595 0.06429339945316315 0.037905894219875336 -0.01613585092127323 -0.02220316044986248 0.058122072368860245 -0.00825523678213358 0.04730067774653435 0.002717281226068735 0.005325353238731623 0.026508526876568794 -0.025322549045085907 0.040681567043066025 0.011346609331667423 -0.03472621366381645 0.0050139278173446655 -0.02687842957675457 0.01432943344116211 -0.03571515530347824 0.009981932118535042 -0.039090510457754135 -0.05969604104757309 0.002329113194718957 0.06824514269828796 -0.0001000490810838528 -0.019890571013092995 -0.019957182928919792 -0.04964469000697136 -0.042593102902173996 0.00637874286621809 -0.0387578010559082 0.03394611179828644 0.060619011521339417 -0.014830107800662518 -0.02597629465162754 -0.01964431256055832 0.002666833810508251 0.042990583926439285 0.00352119212038815 -0.020768772810697556 0.051811929792165756 -0.03443221002817154 -0.033957257866859436 0.04275905340909958 0.014433527365326881 0.01567661389708519 -0.05618812516331673 -0.016626104712486267 0.020721159875392914 0.028529763221740723 0.010032681748270988 0.04756775125861168 -0.04611028730869293 0.08253476768732071 0.05693521723151207 0.031057724729180336 0.04199419543147087 -0.0030332382302731276 0.15340647101402283 0.0036559102591127157 0.012649820186197758 0.02291516400873661 0.04111379757523537 0.09141802042722702 -0.03119119442999363 -0.0008490880136378109 -0.038639284670352936 -0.05124836415052414 -0.04719697684049606 0.04701385647058487 -0.02347290888428688 0.05600874871015549 0.015077750198543072 0.012027121149003506 0.053517527878284454 0.05294366925954819 0.01034147571772337 -0.05322439596056938 0.08909224718809128 0.10581085085868835 -0.0823199525475502 0.04316919669508934 0.0760280042886734 -0.0033716652542352676 -0.00945002306252718 -0.02759009413421154 0.01310054026544094 0.021849216893315315 -0.07718177884817123 -0.040985107421875 0.08343416452407837 0.054004181176424026 -0.031656865030527115 0.03524278104305267 0.015687307342886925 -0.03965141251683235 0.05042240023612976 -0.08933891355991364 0.014829698950052261 0.042968250811100006 -0.0024604389909654856 0.08611305058002472 -0.021483665332198143 -0.08940961956977844 -0.07003026455640793 -0.003999817650765181 0.010098547674715519 0.01116212923079729 0.034357111901044846 -0.04078517109155655 -0.04628622531890869 -0.00826883316040039 -0.00020143725851085037 -0.04299747943878174 -0.0890846848487854 -0.007881918922066689 0.03982646390795708 0.03818977624177933 -0.041822321712970734 -0.022702595219016075 0.017299940809607506 0.04490363225340843 -0.033616431057453156 0.008872891776263714 0.017592376098036766 0.029076917096972466 0.07446424663066864 0.02792060561478138 -0.019089750945568085 -0.016616618260741234 -0.002598688704892993 -0.053249917924404144 0.01624230481684208 0.10521858930587769 0.05023379996418953 -0.037421271204948425 0.020927658304572105 0.05998247489333153 0.012644456699490547 -0.09741881489753723 -0.011719775386154652 0.06145268306136131 7.697934779571369e-05 -0.01697678305208683 0.01983133889734745 0.10123778879642487 0.03922860696911812 0.007755953352898359 -0.024041952565312386 -0.0062538208439946175 -0.0492059588432312 -0.013927764259278774 -0.03249676153063774 0.0048929424956440926 0.036851853132247925 -0.007347247563302517 -0.009435330517590046 0.03955356776714325 -0.05809549242258072 -0.07731791585683823 0.013507342897355556 -0.0724734291434288 -0.09266043454408646 0.015537980012595654 0.018910793587565422 0.024267887696623802 -0.05334606021642685 0.002803843468427658 -0.0332319438457489 0.037644073367118835 -0.0037405784241855145 0.049064114689826965 0.04210513085126877 0.024389080703258514 0.049914635717868805 0.13966207206249237 -0.061219435185194016 0.0037089656107127666 0.014005149714648724 0.09538126736879349 -0.06997518241405487 -0.00939757376909256 0.019946221262216568 -0.07103966176509857 0.028901761397719383 -0.0691581442952156 -0.03539292886853218 -0.06701093167066574 -0.03607567027211189 0.020271925255656242 -0.011626084335148335 0.03476480394601822 -0.05136409029364586 -0.13762229681015015 -0.10880570113658905 0.12375432252883911 0.05945885181427002 0.059131477028131485 -0.09677901864051819 -0.02436639554798603 -0.009002613835036755 -0.0458543598651886 0.09666381776332855 0.01933477446436882 -0.08258868008852005 -0.008354900404810905 0.021540049463510513 -0.038822490721940994 0.044399555772542953 0.04654894024133682 -0.05884639173746109 -0.036922186613082886 -0.06902873516082764 -0.0448862686753273 -0.04204206541180611 0.07235950231552124 0.018984179943799973 -0.0011183831375092268 -0.029320020228624344 -0.03751404210925102 0.055672090500593185 -0.0078602759167552 0.025430426001548767 0.00679038418456912 0.06352751702070236 0.026012049987912178 0.029416140168905258 -0.011421422474086285 0.020948393270373344 0.11238659173250198 -0.04385165497660637 0.009511581622064114 -0.023066088557243347 0.005244092550128698 0.0744481161236763 0.026000332087278366 -0.02102179080247879 -0.07213061302900314 -0.02380959689617157 -0.042773496359586716 -0.013806432485580444 -0.04929675534367561 -0.05390164256095886 -0.01879347302019596 -0.0038900040090084076 0.07176414132118225 0.10571841895580292 0.033300478011369705 -0.052184682339429855 0.019069120287895203 -0.022150475531816483 -0.07821500301361084 -0.05452902987599373 0.024938704445958138 -0.021285271272063255 -0.016636716201901436 -0.01593993976712227 -0.052710309624671936 0.006894461810588837 -0.09864521026611328 0.07595795392990112 0.024869399145245552 0.02922644279897213 0.0244341641664505 0.04318675398826599 0.019989771768450737 0.08522792905569077 0.05620637163519859 0.002006357768550515 0.028549356386065483 0.09132375568151474 0.0033333152532577515 -0.03495674952864647 -0.01304242480546236 0.0030353658366948366 0.02178690955042839 0.018422624096274376 -0.005087197292596102 0.011630808003246784 0.0698283463716507 0.010704616084694862 0.05648559331893921 0.02178647741675377 -0.027043737471103668 0.07759375870227814 0.029049890115857124 0.019047899171710014 0.02488013543188572 0.06308190524578094 -0.038707394152879715 0.023859042674303055 0.03188251331448555 -0.0054046097211539745 -0.06081269681453705 -0.01550732459872961 0.0717441514134407 -0.03212505951523781 0.0004439393524080515 0.028262069448828697 0.025723712518811226 0.07267601042985916 0.0005346799152903259 -0.04909944534301758 0.06939173489809036 0.05729586258530617 -0.006833085790276527 -0.03230763599276543 -0.01633693091571331 0.03001190349459648 0.052719082683324814 -0.046957701444625854 -0.059110235422849655 -0.04985329136252403 0.04077952355146408 -0.00835274625569582 0.10964927822351456 0.13492117822170258 0.12794996798038483 0.03938060626387596 -0.11262430995702744 0.0053986492566764355 0.0761619508266449 -0.0318269357085228 0.0961456149816513 0.0028870278038084507 0.009960172697901726 0.01085167471319437 -0.006516794674098492 0.0576227642595768 0.014852311462163925 0.054238658398389816 0.03696312755346298 -0.06984064728021622 0.03703659772872925 0.12187916040420532 -0.07317296415567398 0.0017022562678903341 -0.00646642642095685 0.03631507232785225 0.0017660082085058093 0.00036929434281773865 -0.06755159795284271 -0.046431105583906174 -0.03774004057049751 -0.04567019268870354 -0.017561599612236023 0.04407907649874687 0.03366858884692192 0.028504835441708565 -0.012967218644917011 0.020876431837677956 0.04063139855861664 -0.01749943196773529 0.04221377149224281 0.052681926637887955 -0.006848808843642473 -0.03090345859527588 0.02713768184185028 0.09929601848125458 0.010042980313301086 -0.04227915778756142 -0.03851693123579025 0.07549974322319031 0.04285106807947159 -0.0404246561229229 0.06892917305231094 0.006106531247496605 -0.004553907085210085 0.005291308276355267 0.014001891948282719 0.017956869676709175 0.07129184901714325 -0.0063806502148509026 0.06415143609046936 0.004227636381983757 0.06944805383682251 0.16996026039123535 -0.030260451138019562 0.0666007250547409 0.05337914451956749 0.08273222297430038 0.00809186976402998 -0.06309645622968674 0.03917819261550903 -0.008711633272469044 -0.019902316853404045 -0.05109697952866554 0.0726906955242157 0.05211422219872475 -0.07117794454097748 0.06339085102081299 0.07226589322090149 0.03249300271272659 -0.03895604982972145 0.041050683706998825 0.10018899291753769 0.013214991427958012 0.02049131691455841 0.01813364587724209 0.04992597550153732 -0.0026993993669748306 -0.04607241973280907 0.03738143667578697 -0.037493690848350525 0.02585228532552719 -0.12113860249519348 0.023942211642861366 0.003301162039861083 -0.08682119846343994 0.017894208431243896 -0.009738973341882229 -0.07434014976024628 0.010821279138326645 -0.0636054128408432 -0.013990551233291626 0.05778728052973747 0.025502029806375504 0.0023742346093058586 0.019995423033833504 -0.05866303667426109 -0.012432239018380642 -0.0010083777597174048 0.05737670138478279 0.013633820228278637 0.01658371277153492 0.03813349828124046 -0.024012815207242966 -0.06724473088979721 -0.07052619010210037 0.03992922604084015 -0.008790401741862297 -0.007741085719317198 -0.006222610827535391 0.010846417397260666 0.05180817097425461 -0.04697829484939575 -0.03557782620191574 -0.05259719491004944 -0.07795940339565277 -0.05902931094169617 -0.045366134494543076 0.035919684916734695 0.03609820827841759 -0.004947505425661802 0.02975214086472988 -0.03714219853281975 0.012944403104484081 -0.010920802131295204 -0.012450063601136208 0.008512374013662338 -0.03765331208705902 -0.030819715932011604 0.001009954372420907 -0.03282563388347626 0.012159341014921665 -0.04706261679530144 -0.023230839520692825 0.0024519897997379303 0.004426478873938322 0.03632676228880882 -0.022871924564242363 0.01890561357140541 0.030703453347086906 -0.0369056798517704 0.08238954097032547 -0.009512106887996197 0.008238289505243301 0.032897256314754486 0.05987972393631935 0.052932411432266235 0.014695781283080578 0.003943695221096277 0.004251364152878523 0.026691660284996033 -0.03695324808359146 0.0062855505384504795 -0.07341037690639496 0.016493327915668488 0.048379406332969666 -0.0050946567207574844 -0.023015182465314865 -0.06611145287752151 -0.017299050465226173 -0.016021577641367912 -0.07035322487354279 0.050830643624067307 -0.006049661431461573 0.050518639385700226 -0.10298836976289749 -0.0725105032324791 -0.04331722855567932 -0.0324997678399086 -0.039898309856653214 0.003596124704927206 -0.04547868296504021 -0.023997629061341286 -0.049905307590961456 0.03287723660469055 -0.060246944427490234 -0.06330772489309311 -0.011685241013765335 -0.04921471327543259 -0.02081099897623062 -0.002840691478922963 -0.010983261279761791 0.03887937590479851 -0.05378721281886101 0.042173195630311966 -0.023883197456598282 -0.010315736755728722 0.020760944113135338 0.03800644353032112 -0.004264930263161659 0.05181960016489029 0.035361889749765396 -0.04252053052186966 0.060711491852998734 0.01755453273653984 0.004594959318637848 -0.04604978859424591 -0.061301980167627335 -0.021942822262644768 0.008071502670645714 0.023369697853922844 -0.0287469532340765 -0.004770803265273571 0.020353538915514946 0.02169046364724636 -0.005309367552399635 -0.07055769115686417 -0.02045677974820137 0.00954150129109621 -0.04319362714886665 0.006071262061595917 -0.055036760866642 -0.042418237775564194 -0.006950990296900272 -0.030454624444246292 -0.010488211177289486 0.034917086362838745 -0.0038291607052087784 -0.0449209026992321 0.04846051707863808 -0.007077006157487631 0.02530515566468239 -0.004327763337641954 -0.06612681597471237 -0.02675478160381317 0.021695774048566818 -4.267409167368896e-06 0.01952262967824936 -0.05104665085673332 -0.028589479625225067 -0.03776150196790695 -0.017624856904149055 0.021510833874344826 0.02982860803604126 0.024797681719064713 -0.022443678230047226 -0.028804074972867966 -0.025591805577278137 0.008646923117339611 -0.0052057672291994095 0.05547581985592842 -0.0259024016559124 -0.009935172274708748 -0.01255467627197504 0.05507350713014603 -0.008554733358323574 -0.046968698501586914 -0.016077442094683647 0.03296975418925285 0.061419304460287094 -0.04248548299074173 -0.046751778572797775 -0.011233448050916195 -0.0387909822165966 -0.021059880033135414 -0.00445644510909915 -0.05146772786974907 -0.01949048414826393 -0.08258797228336334 -0.015533959493041039 0.04401812329888344 -0.024654483422636986 0.005615215748548508 0.00044908872223459184 0.005012070294469595 0.005963136907666922 -0.0653538927435875 -0.02405964583158493 0.03919851407408714 0.0628800243139267 0.012652033008635044 -0.03862817585468292 -0.030291719362139702 0.05475412309169769 0.028651423752307892 0.0060333069413900375 0.023017242550849915 -0.01609618403017521 -0.03238444775342941 -0.0017580740386620164 0.052039552479982376 -0.058435797691345215 -0.050825219601392746 -0.05001666396856308 -0.03845018520951271 -0.0028156607877463102 -0.0071194968186318874 -0.05166276916861534 -0.029910419136285782 -0.0701480358839035 -0.04810342192649841 -0.030684305354952812 -0.011960232630372047 -0.027396781370043755 -0.04316624999046326 0.02084164507687092 0.018190989270806313 0.02751430682837963 0.00037949695251882076 -0.007329325191676617 -0.0031077880412340164 -0.022350961342453957 -0.08290877193212509 -0.005097780376672745 -0.017833877354860306 -0.04636099934577942 -0.04552435502409935 -0.030223054811358452 -0.01646639034152031 -0.0403185673058033 -0.014307904057204723 0.014756959863007069 -0.07080765068531036 0.0031817227136343718 -0.04206901788711548 -0.07096058875322342 0.013668409548699856 0.008876367472112179 0.05170778930187225 0.011223970912396908 -0.040805883705616 0.0016663263086229563 -0.03420780599117279 -0.08211425691843033 -0.07487315684556961 -0.009752878919243813 -0.01152168307453394 0.0052244896069169044 0.041322991251945496 -0.026643769815564156 -0.027148187160491943 -0.024495413526892662 -0.017998654395341873 0.03618301823735237 -0.03396168723702431 0.03941579908132553 0.029744861647486687 -0.0030414327047765255 0.03515550121665001 -0.008127512410283089 0.06063704565167427 -0.02700689248740673 0.005802528001368046 0.060338910669088364 -0.03872844949364662 0.0026467503048479557 -0.00446004793047905 -0.010881343856453896 -0.024566911160945892 -0.03434574231505394 -0.02448400855064392 0.03873193636536598 -0.019741011783480644 -0.027058608829975128 -0.06925666332244873 -0.06610392034053802 -0.018529120832681656 -0.009979983791708946 -0.031248964369297028 0.02307574637234211 0.005364101845771074 0.034484971314668655 0.03035804070532322 0.01177873183041811 0.02694346196949482 -0.03205692768096924 -0.009690794162452221 0.04585597291588783 -0.014381688088178635 0.044742319732904434 -0.018285907804965973 -0.023959141224622726 0.013702943921089172 0.018969302996993065 -0.039661943912506104 0.009115522727370262 -0.027331752702593803 -0.05370982363820076 0.02321498654782772 -0.043678637593984604 0.029349811375141144 -0.005521594081073999 -0.012369747273623943 -0.03537862002849579 -0.07117524743080139 -0.04428772255778313 0.014692747965455055 0.01085457019507885 -0.01862446963787079 -0.04423774033784866 -0.014831299893558025 -0.02369515784084797 -0.03443090245127678 -0.04670092090964317 -0.017856772989034653 -0.036683857440948486 -0.0035790815018117428 -0.02609112299978733 -0.00017455004854127765 -0.02615056000649929 0.03216506913304329 -0.0315232016146183 -0.04606456682085991 -0.008004363626241684 -0.013906387612223625 -0.05453101918101311 -0.0151531295850873 -0.10305363684892654 -0.04165410250425339 0.009761731140315533 0.01971222460269928 -0.0039295293390750885 0.00359822204336524 -0.030571654438972473 0.01592191308736801 0.014382079243659973 -0.016713427379727364 0.05503852665424347 -0.03207571059465408 0.0118740638718009 -0.03353111445903778 0.013983779586851597 -0.017026161774992943 -0.06101330369710922 -0.02708972617983818 -0.018436381593346596 -0.021531270816922188 -0.0057960450649261475 -0.034205369651317596 -0.016639316454529762 0.008665032684803009 -0.0026357867754995823 -0.03939936310052872 -0.001414166996255517 0.008076139725744724 -0.004072842188179493 0.03230687603354454 -0.01746189221739769 0.02514069341123104 0.010444504208862782 -0.03480417653918266 -0.0066551389172673225 0.03668556734919548 0.0670999214053154 -0.03294414281845093 -0.04159044474363327 0.026846298947930336 -0.05521794781088829 0.00517937820404768 0.013224165886640549 -0.068415068089962 0.01952279731631279 -0.08503612130880356 -0.036257512867450714 0.029904315248131752 -0.01899247244000435 -0.05741594731807709 0.00989806093275547 0.03595275059342384 0.06394399702548981 -0.07358358055353165 -0.0018494436517357826 -0.010015399195253849 -0.02312721498310566 -0.018197448924183846 0.0063442932441830635 -0.01239774003624916 -0.00048689829418435693 0.04048745334148407 -0.034115973860025406 0.032347507774829865 0.017972704023122787 -0.022586874663829803 -0.03499116376042366 -0.005892185494303703 0.024877699092030525 -0.07106396555900574 -0.020398039370775223 -0.032686538994312286 -0.041074927896261215 -0.026622964069247246 -0.06852646172046661 0.03868294507265091 -0.013817651197314262 -0.020094430074095726 0.041828155517578125 0.0029704563785344362 -0.03756164386868477 0.04355432093143463 0.0035940625239163637 0.00849196221679449 -0.04214460030198097 0.06740842014551163 0.017683040350675583 0.051322028040885925 0.04080422595143318 0.020186912268400192 -0.05565818399190903 -0.0281772892922163 -0.02528337761759758 -0.042658668011426926 -0.06583070009946823 -0.020272495225071907 0.01905975677073002 -0.018366027623414993 -0.02996530756354332 -0.03007986955344677 -0.015917474403977394 0.010168518871068954 -0.04699119180440903 -0.02098488062620163 0.03984998166561127 0.0464530847966671 0.03810146823525429 -0.002634885022416711 0.05066462978720665 0.03501707687973976 -0.0023299576714634895 0.026822376996278763 0.06906451284885406 0.005065163131803274 -0.05409249663352966 0.06484910845756531 0.06234970688819885 0.06619469821453094 0.06365646421909332 -0.0446225181221962 0.017596164718270302 0.05995221436023712 0.06232064589858055 0.13503721356391907 0.05530146136879921 0.039808809757232666 0.016817977651953697 0.03619038313627243 0.0706799179315567 0.13074733316898346 0.09326429665088654 0.03059883415699005 0.06790610402822495 -0.016314297914505005 -0.023750007152557373 -0.020539576187729836 0.03370712697505951 0.08282492309808731 0.11996204406023026 0.12495669722557068 0.04300780966877937 0.050606049597263336 0.047031983733177185 0.06310860067605972 0.12273755669593811 0.0839046835899353 -0.012776369228959084 0.041666723787784576 0.10873042792081833 0.16620367765426636 -0.004060172941535711 0.017340442165732384 0.0674697756767273 0.04092252999544144 -0.0050800638273358345 0.03402768820524216 0.04944660887122154 -0.011328759603202343 0.057487208396196365 0.059620536863803864 -0.009032458998262882 -0.043848950415849686 -0.004671746864914894 0.026478881016373634 -0.014156580902636051 -0.027674827724695206 0.0438811257481575 0.01867801696062088 0.038384146988391876 0.010289767757058144 -0.04985857382416725 0.062283121049404144 -0.0094608748331666 -0.046496711671352386 -0.022178521379828453 -0.026954248547554016 -0.016064299270510674 -0.04313358664512634 0.03742741048336029 0.01025724969804287 0.058029256761074066 -0.022739456966519356 -0.002887055277824402 0.07157407701015472 -0.00806051678955555 0.00860748253762722 -0.02388620935380459 0.020679233595728874 0.05588209629058838 0.070017971098423 0.03044763393700123 0.05406409502029419 -0.004404886160045862 0.03724966570734978 0.07206983864307404 0.0023133710492402315 0.05613231658935547 -0.00276697869412601 0.019067876040935516 0.046128109097480774 0.07657503336668015 -0.0335734561085701 0.027466030791401863 0.007991489954292774 0.06507375836372375 -0.0016545880353078246 -0.049780551344156265 0.05722843110561371 -0.0058037880808115005 0.0028882483020424843 0.03298601508140564 -0.026996882632374763 -0.02077683061361313 -0.02256721444427967 -0.03963262960314751 0.046309418976306915 0.027126282453536987 -0.06308364868164062 0.017747994512319565 -0.029476040974259377 -0.17927441000938416 -0.012812258675694466 0.05862705036997795 -0.007030213251709938 0.012048195116221905 -0.09498836100101471 0.01456923596560955 0.04746955633163452 -0.042755067348480225 0.06264901906251907 -0.1447691023349762 -0.057794757187366486 0.025110207498073578 -0.008103812113404274 0.10199561715126038 -0.029943320900201797 -0.002272558631375432 -0.025114258751273155 -0.009787801653146744 0.014205053448677063 0.06433188170194626 -0.022344956174492836 0.0460185632109642 0.016254344955086708 0.02621179074048996 0.02682073414325714 -0.010043722577393055 0.023704368621110916 0.03748027980327606 -0.009572725743055344 -0.03100784309208393 -0.03230484575033188 -0.00043735787039622664 -0.033054009079933167 0.0471874363720417 -0.06203530356287956 -0.036234017461538315 -0.05319657549262047 0.006221343297511339 0.05821863189339638 -0.009407088160514832 -0.040922947227954865 -0.1764320433139801 -0.23455725610256195 -0.09334346652030945 -0.012704639695584774 -0.1482681930065155 -0.07748022675514221 -0.12902644276618958 -0.11511532962322235 -0.09609338641166687 0.014940047636628151 0.06472061574459076 0.004752907902002335 -0.12828198075294495 -0.03723118454217911 -0.006082266103476286 0.021285122260451317 0.044708818197250366 0.046171605587005615 -0.0039334651082754135 0.010363036766648293 0.010289655067026615 -0.008790269494056702 0.030045440420508385 -0.047511812299489975 -0.0016750540817156434 0.022603310644626617 -0.042227961122989655 -0.030816642567515373 0.05101102590560913 -0.023819515481591225 0.007595577277243137 0.025707609951496124 0.03453513979911804 0.011223392561078072 0.009688758291304111 -0.014169279485940933 -0.010931435041129589 0.13101139664649963 -0.024288134649395943 0.06779767572879791 -0.004121314734220505 0.060969967395067215 0.004206039477139711 0.00572422007098794 0.05713028833270073 0.04380118101835251 0.05745570734143257 -0.015394540503621101 -0.06595447659492493 -0.03708440437912941 0.009722438640892506 0.031001973897218704 0.018010474741458893 -0.02070910483598709 0.05158383026719093 -0.10115779936313629 -0.05376144126057625 -0.025567088276147842 -0.09853845089673996 -0.07934427261352539 -0.02058769017457962 -0.10485044121742249 -0.09476155787706375 -0.12684257328510284 -0.04646836593747139 -0.024285858497023582 -0.03596308454871178 -0.085895836353302 -0.01658935286104679 -0.08916723728179932 -0.007657150737941265 0.020844433456659317 0.10398043692111969 -0.056632205843925476 0.008866268210113049 -0.021283797919750214 0.029786141589283943 -0.042812004685401917 0.07045281678438187 -0.02890973538160324 -0.02626030519604683 -0.007424494251608849 0.019456906244158745 0.03853577747941017 0.03940507024526596 0.02946239523589611 0.04470667243003845 0.01645977608859539 -0.030296863988041878 0.021334916353225708 -0.016936955973505974 0.06402257084846497 0.014232228510081768 0.04362371936440468 0.008350871503353119 -0.02823013812303543 0.0005074129439890385 0.0027342031244188547 0.0100035285577178 -0.07109041512012482 -0.004745660815387964 -0.07114746421575546 -0.08283715695142746 0.035161342471838 0.04755124822258949 0.012003161944448948 -0.027172613888978958 -0.03520582243800163 0.0487438440322876 0.012687455862760544 -0.006933203898370266 0.0016409017844125628 -0.016566399484872818 0.04023141786456108 -0.00192452862393111 0.06336550414562225 0.07656900584697723 0.10477529466152191 -0.0069580706767737865 -0.04279189556837082 -0.009424890391528606 0.039364177733659744 -0.014472643844783306 0.02038157731294632 0.039188411086797714 0.05273463577032089 -0.026283208280801773 -0.07076825201511383 -0.05404612421989441 -0.00314482138492167 0.019751984626054764 0.004967083688825369 -0.11928707361221313 0.047657210379838943 -0.04863649606704712 0.01686144433915615 0.022670159116387367 -0.09422323107719421 -0.04558729752898216 0.01663997955620289 0.07418546825647354 0.07432479411363602 0.013407907448709011 -0.0143744433298707 -0.01339962612837553 0.042239852249622345 -0.005859874654561281 0.05290078744292259 0.06246216222643852 0.030321981757879257 -0.03193095326423645 -0.026616498827934265 0.03607156500220299 -0.03578317165374756 0.04311208054423332 0.09177093952894211 0.03072780929505825 -0.0012259369250386953 0.036551862955093384 0.06909101456403732 0.07734513282775879 0.0891837552189827 0.06507226079702377 0.07564540207386017 0.03835456445813179 0.047049425542354584 0.01863757334649563 0.08427102863788605 0.001155031961388886 0.04539411514997482 0.011508605442941189 -0.045294951647520065 -0.07724887877702713 -0.0172030758112669 0.03512244671583176 0.0866127535700798 0.10154321789741516 0.05999819189310074 0.12838385999202728 0.07866134494543076 0.06075583025813103 0.0967702865600586 0.0793132409453392 0.17962056398391724 0.07546836882829666 0.01399572566151619 0.045307889580726624 0.035564519464969635 0.06188588589429855 0.12443475425243378 0.01855611987411976 0.039793699979782104 -0.04578787460923195 0.022066311910748482 0.120547816157341 0.028184091672301292 0.0513000525534153 0.011993356980383396 -0.054184529930353165 -0.07061298936605453 -0.024517903104424477 -0.03614775091409683 0.02771267481148243 0.008892253041267395 -0.004079701844602823 0.03853205218911171 0.015018366277217865 0.08978670835494995 -0.06239135190844536 0.08308181166648865 0.019544508308172226 0.04720516875386238 0.09717506170272827 -0.06621665507555008 0.046562474220991135 -0.018512481823563576 0.02404608018696308 -0.022396059706807137 0.02016446925699711 0.03645768761634827 0.035459984093904495 -0.028232373297214508 -0.006092965602874756 0.035701245069503784 -0.008026386611163616 -0.04613114148378372 -0.036315690726041794 -0.014301142655313015 0.007942181080579758 0.01888391189277172 0.029650282114744186 -0.02383400686085224 -0.01262562908232212 0.015247460454702377 0.00784671027213335 -0.010333994403481483 0.022577974945306778 0.025884205475449562 -0.13622812926769257 -0.027720851823687553 0.04063018038868904 0.03471367433667183 0.004218278918415308 -0.05711478367447853 -0.08722302317619324 -0.036572739481925964 -0.025536617264151573 -0.031241973862051964 0.037075404077768326 0.05992791801691055 0.046227388083934784 0.024167140945792198 0.09523098170757294 -0.04610026255249977 -0.012397334910929203 0.01251945085823536 -0.05797920003533363 0.05562277138233185 -0.04019499197602272 0.0018947080243378878 0.049462735652923584 0.04398661106824875 -0.01847621239721775 0.034182123839855194 -0.030644990503787994 0.0617956668138504 0.08776413649320602 -0.04009758308529854 0.0024437038227915764 0.002125788712874055 0.12912696599960327 -0.0008307749521918595 -0.029450595378875732 0.002762817544862628 -0.017158301547169685 0.01217675767838955 -0.0111150611191988 0.11551526933908463 0.03573142737150192 0.062435951083898544 0.033747393637895584 -0.00374417332932353 0.10156254470348358 -0.04033308103680611 -0.00657540513202548 0.005093342624604702 0.12576687335968018 0.009844712913036346 -0.009258660487830639 0.013489852659404278 0.039936989545822144 -0.0692019835114479 -0.05441515892744064 0.023688949644565582 0.028291115537285805 0.011231960728764534 0.09438669681549072 -0.033688079565763474 -0.0066148024052381516 -0.02716527320444584 0.013188215903937817 -0.05511142686009407 -0.005446868482977152 -0.12072732299566269 -0.022801974788308144 -0.038088809698820114 0.03221595659852028 -0.04587067291140556 -0.07530706375837326 -0.03424958512187004 -0.09792633354663849 -0.01563640870153904 0.012372279539704323 0.04869456961750984 -0.09969458729028702 0.07129066437482834 -0.03839994966983795 -0.022452354431152344 0.0626467615365982 0.041484683752059937 -0.0862460806965828 -0.030224712565541267 0.01525767333805561 -0.03907494992017746 -0.0035782726481556892 0.05820566788315773 0.006284113507717848 0.058167796581983566 -0.0067728920839726925 0.05957029014825821 0.03683418408036232 0.008745863102376461 0.008487106300890446 -0.0028149334248155355 0.059070613235235214 -0.04397767782211304 -0.015057345852255821 -0.04746118560433388 -0.0296735018491745 -0.061129212379455566 0.05400674417614937 0.029984964057803154 -0.04577661678195 0.04661039635539055 -0.015903741121292114 0.010602880269289017 -0.05812707170844078 -0.026219110935926437 0.06397797167301178 0.03106595017015934 0.02393609657883644 -0.005412673577666283 0.04456349462270737 -0.056737303733825684 0.021057117730379105 -0.06525953859090805 -0.06564341485500336 -0.0456966832280159 0.060640353709459305 -0.03250247240066528 -0.041931647807359695 0.04280821979045868 -0.049889370799064636 -0.008221577852964401 -0.047090861946344376 -0.08593004196882248 -0.017482932657003403 0.007845867425203323 -0.1847982257604599 -0.16044451296329498 -0.03542512655258179 0.07106976211071014 0.009255926124751568 -0.0043803006410598755 0.01657036505639553 -0.024076642468571663 0.043785564601421356 -0.020352253690361977 0.0042754895985126495 0.05667471885681152 0.024171270430088043 0.006254994310438633 0.018180452287197113 0.05478612333536148 -0.07393131405115128 -0.05084866285324097 0.010584097355604172 0.009121709503233433 -0.06685888022184372 0.0055265240371227264 -0.017319699749350548 0.037892282009124756 -0.030555544421076775 -0.06908325850963593 -0.10790066421031952 -0.14120365679264069 0.06140571087598801 0.014444995671510696 -0.06511601060628891 -0.057924844324588776 0.023409876972436905 0.12596270442008972 0.006366118788719177 0.040572043508291245 -0.025136984884738922 0.0961422398686409 0.10592084378004074 0.07916693389415741 0.005444535054266453 0.051328375935554504 0.02317250706255436 -0.017889706417918205 0.008882549591362476 0.04262015223503113 -0.007464236114174128 -0.09191719442605972 0.022456027567386627 0.02579197846353054 -0.03322954475879669 0.0061587183736264706 -0.08396180719137192 -0.06419970840215683 -0.07525603473186493 0.05209217220544815 0.003025916637852788 0.04913075640797615 -0.014067497104406357 0.021949201822280884 0.04545510932803154 0.0451899878680706 0.047660257667303085 0.005463909357786179 -0.003950260579586029 -4.2909097828669474e-05 -0.0667835995554924 0.020558301359415054 -0.030212804675102234 -0.016320960596203804 -0.056497275829315186 -0.018786732107400894 -0.0019433496054261923 0.04641781374812126 -0.0485665537416935 -0.03907819092273712 0.003942676354199648 -0.021964292973279953 0.07007256150245667 0.014333708211779594 -0.020637160167098045 0.0057680257596075535 0.045290686190128326 0.025467511266469955 0.05606778338551521 -0.04216904193162918 0.005947835277765989 -0.020172035321593285 -0.0172784011811018 -0.06832098960876465 0.013119849376380444 -0.010114796459674835 0.03872663155198097 0.0036430908367037773 -0.03637555241584778 0.0365755558013916 -0.07930179685354233 -0.11216296255588531 -0.09443195164203644 -0.06697313487529755 0.0025065590161830187 -0.11149075627326965 -0.07422193884849548 -0.006909629330039024 0.016122188419103622 -0.017936844378709793 0.08007989078760147 0.04836937412619591 -0.028636634349822998 